6.888740509748458862e-02
-6.064738333225250244e-02
-4.922762513160705566e-02
-5.411624908447265625e-02
-6.670829653739929199e-02
-2.651087939739227295e-03
7.609163969755172729e-02
-2.746262401342391968e-02
-8.364081382751464844e-03
-6.760500371456146240e-02
4.884991794824600220e-02
4.017268866300582886e-02
-3.736421093344688416e-02
8.373383432626724243e-02
-3.908937796950340271e-02
2.981051802635192871e-03
3.649441152811050415e-02
-2.481929957866668701e-03
4.119443148374557495e-02
1.369693875312805176e-02
-1.661729067564010620e-02
-3.011450543999671936e-02
-1.595526188611984253e-02
-1.249283552169799805e-03
-3.567621111869812012e-03
4.505386203527450562e-02
-8.441289514303207397e-02
-2.850456535816192627e-02
-6.092762947082519531e-02
7.831438630819320679e-02
-5.575612187385559082e-03
1.939001679420471191e-02
-3.497859463095664978e-02
6.763235479593276978e-02
5.041327327489852905e-02
-4.736035317182540894e-02
4.173455387353897095e-02
-2.791944891214370728e-02
-8.562061190605163574e-02
-1.541433483362197876e-02
-2.599779516458511353e-02
-3.633288294076919556e-02
-3.273418918251991272e-02
8.033014088869094849e-02
6.934950500726699829e-02
-2.522627264261245728e-02
-8.086200058460235596e-02
2.623923867940902710e-02
7.246991246938705444e-02
4.138835519552230835e-02
-5.848260223865509033e-02
2.519554644823074341e-02
-1.560661196708679199e-02
6.811355799436569214e-02
-3.050194308161735535e-02
4.850827902555465698e-02
-1.901014149188995361e-02
-6.814548373222351074e-02
-4.902851954102516174e-02
-3.402657061815261841e-02
5.547840148210525513e-02
5.936637520790100098e-03
-4.058153927326202393e-02
1.025437563657760620e-02
-2.169330418109893799e-02
2.044485509395599365e-02
-5.295241996645927429e-02
7.791109383106231689e-03
-2.344870567321777344e-02
-5.536369234323501587e-02
-8.518768846988677979e-02
-8.421160280704498291e-03
1.019416749477386475e-02
-5.033758282661437988e-02
7.092896848917007446e-02
1.363776624202728271e-02
-6.579361855983734131e-03
-5.237217247486114502e-02
-2.608744427561759949e-02
-1.452590525150299072e-02
-3.510371223092079163e-02
-2.773557603359222412e-02
1.764673739671707153e-02
-6.495530903339385986e-02
-7.578589767217636108e-02
3.617237508296966553e-02
-1.352146267890930176e-02
-2.944111824035644531e-03
-1.648585498332977295e-02
2.355463057756423950e-02
-4.873385652899742126e-02
-4.284714907407760620e-02
7.112824171781539917e-02
-4.231770336627960205e-02
5.495939403772354126e-02
-2.010849118232727051e-02
-7.203540951013565063e-02
4.368747025728225708e-02
2.910989522933959961e-02
3.111466765403747559e-03
-8.247242867946624756e-02
8.255928754806518555e-03
-4.433450475335121155e-02
3.454244136810302734e-02
-7.231721282005310059e-02
-4.054103791713714600e-02
2.507737278938293457e-02
1.614499092102050781e-02
-1.943425834178924561e-02
6.964430212974548340e-03
8.158614486455917358e-02
-7.597684860229492188e-02
-2.856642752885818481e-02
-2.245835959911346436e-03
8.404850959777832031e-04
3.266981244087219238e-02
3.488212823867797852e-03
-2.428504079580307007e-02
-5.559851974248886108e-02
-1.139088720083236694e-02
7.712655514478683472e-02
-6.036306172609329224e-02
6.642351299524307251e-02
2.450289577245712280e-02
-7.944971323013305664e-02
2.838613092899322510e-02
-5.759706348180770874e-02
5.555795878171920776e-02
-5.120368301868438721e-02
7.606600970029830933e-02
-4.079828783869743347e-02
-7.682228088378906250e-02
-3.193132206797599792e-02
-7.072824239730834961e-02
-2.062219381332397461e-02
1.316648721694946289e-02
2.237867563962936401e-02
-7.656290382146835327e-02
4.107492417097091675e-02
-1.514300704002380371e-03
1.780072599649429321e-02
7.449423521757125854e-02
5.103150755167007446e-02
-2.141303569078445435e-02
3.495670109987258911e-02
2.526648342609405518e-02
-4.538464546203613281e-02
-1.649920642375946045e-02
-7.999216020107269287e-02
1.781965792179107666e-02
-7.263241708278656006e-02
-1.859712600708007812e-02
-1.960564404726028442e-02
7.999598979949951172e-03
-9.391486644744873047e-03
-7.318282127380371094e-02
-7.049559056758880615e-02
-5.396847799420356750e-02
-5.903884768486022949e-03
6.610112637281417847e-02
-2.359700947999954224e-02
-8.830286562442779541e-03
7.800922542810440063e-02
4.548316448926925659e-02
3.401063382625579834e-03
-5.833509936928749084e-02
-6.276942789554595947e-02
-1.251593232154846191e-03
5.534511059522628784e-02
-7.552601397037506104e-02
-2.611436694860458374e-02
-2.548994123935699463e-02
1.511962711811065674e-02
4.277447611093521118e-02
-5.013733357191085815e-02
1.076228916645050049e-02
-4.871450364589691162e-03
-2.901472896337509155e-02
5.016501992940902710e-02
-7.532261312007904053e-02
-6.014396250247955322e-02
6.829527765512466431e-02
-2.662019804120063782e-02
-1.249362528324127197e-02
1.108097285032272339e-02
-6.185095384716987610e-02
8.493577688932418823e-02
1.023523509502410889e-02
-7.580234110355377197e-02
6.707274168729782104e-02
-8.340924233198165894e-02
-3.550074249505996704e-02
-2.806055545806884766e-02
-6.906177103519439697e-02
3.032575547695159912e-02
-1.870121061801910400e-02
5.217955261468887329e-02
6.948287039995193481e-02
-2.707062661647796631e-02
3.353979438543319702e-02
-6.328515708446502686e-02
-7.566440105438232422e-02
-4.174003005027770996e-02
2.007620781660079956e-02
6.302186101675033569e-02
-3.325475752353668213e-02
-3.566826134920120239e-02
-2.493555471301078796e-02
-5.558561533689498901e-02
6.998967379331588745e-02
3.685931861400604248e-02
-3.226722031831741333e-02
-3.780372068285942078e-02
3.290265053510665894e-02
-2.978719770908355713e-03
-3.064777329564094543e-02
-1.944151520729064941e-02
-5.727007985115051270e-02
3.639194369316101074e-02
2.227858453989028931e-02
3.467781841754913330e-02
-1.420409232378005981e-02
-7.287555932998657227e-02
1.830354332923889160e-03
7.714436203241348267e-02
-5.647248774766921997e-02
3.213454037904739380e-02
-5.652433633804321289e-02
-1.040216535329818726e-02
-2.395972982048988342e-02
-4.640928655862808228e-02
-6.386086344718933105e-02
-5.818575620651245117e-02
6.707850843667984009e-02
-3.882810473442077637e-03
2.034038305282592773e-03
-4.007632285356521606e-02
7.064884155988693237e-02
7.054001837968826294e-02
1.145463436841964722e-02
-2.481080219149589539e-02
5.223497748374938965e-03
-6.493613123893737793e-02
7.470623403787612915e-02
-6.398040056228637695e-02
-6.664083153009414673e-02
8.505267649888992310e-02
-2.510853111743927002e-02
-5.710239708423614502e-02
2.207358926534652710e-02
4.441828280687332153e-02
-1.494556665420532227e-03
5.583255738019943237e-02
5.419056862592697144e-02
-8.228080719709396362e-02
-4.607860371470451355e-02
-6.058382242918014526e-02
-8.288659155368804932e-02
1.324415206909179688e-03
4.029045253992080688e-02
-7.152906805276870728e-02
3.782161325216293335e-02
4.146730154752731323e-02
7.751335948705673218e-02
-2.952773496508598328e-02
6.941343098878860474e-02
-6.682871282100677490e-02
1.265959441661834717e-02
7.801247388124465942e-02
6.820163875818252563e-02
-6.849452853202819824e-02
-3.768271207809448242e-02
-7.600080966949462891e-02
5.845145136117935181e-02
6.057850271463394165e-02
7.388258725404739380e-02
-7.058683037757873535e-02
5.700691789388656616e-02
2.665192633867263794e-02
5.590828508138656616e-02
-3.642649576067924500e-02
-6.278384476900100708e-02
2.977872639894485474e-02
-7.512079179286956787e-02
-2.802148833870887756e-02
3.918337821960449219e-02
5.881622433662414551e-03
-1.902365684509277344e-02
-4.863036796450614929e-02
-7.119482010602951050e-02
-1.587765663862228394e-02
3.611656278371810913e-02
6.411016732454299927e-02
3.040164709091186523e-02
-2.503354474902153015e-02
-1.328960061073303223e-02
-5.652300268411636353e-02
1.416809111833572388e-02
6.792508065700531006e-03
1.681536436080932617e-03
1.460617035627365112e-02
1.720967888832092285e-02
5.553231388330459595e-02
5.663687735795974731e-02
-2.166923880577087402e-02
6.334707885980606079e-02
1.533975452184677124e-02
6.518510729074478149e-02
-8.380457758903503418e-03
-7.214707136154174805e-02
7.314156740903854370e-02
5.110872536897659302e-02
-6.798152625560760498e-02
-2.712533622980117798e-02
4.592796415090560913e-02
-7.556187361478805542e-02
6.714161485433578491e-02
7.811581343412399292e-02
3.932481259107589722e-02
-5.776249617338180542e-02
-8.430758118629455566e-02
7.147041708230972290e-02
-9.509444236755371094e-03
6.474785506725311279e-03
-3.092354536056518555e-02
8.327239006757736206e-02
1.577460020780563354e-02
-3.474626690149307251e-02
-5.556723475456237793e-02
-7.221310585737228394e-02
2.664759755134582520e-02
-6.221183389425277710e-02
-5.205500125885009766e-02
6.029961258172988892e-02
-2.178933471441268921e-02
-4.189528524875640869e-02
8.030062168836593628e-02
-1.020774245262145996e-02
1.587144285440444946e-02
6.362966448068618774e-02
2.704429626464843750e-02
6.806918233633041382e-02
-4.510281980037689209e-02
5.799172073602676392e-02
3.111243247985839844e-03
1.525069773197174072e-02
1.778383553028106689e-02
-6.511013209819793701e-02
-3.935425356030464172e-02
7.451909035444259644e-02
8.569195866584777832e-03
-4.070492088794708252e-02
6.946860998868942261e-02
2.705036848783493042e-02
-1.818896085023880005e-02
-2.477723360061645508e-02
1.866919547319412231e-02
3.170596808195114136e-02
4.164289683103561401e-02
5.544144660234451294e-02
-6.931748986244201660e-02
7.220753282308578491e-02
-5.258520320057868958e-02
-2.316492050886154175e-02
1.814220100641250610e-02
-8.081823587417602539e-03
-6.794288009405136108e-02
1.402132213115692139e-02
-4.770598188042640686e-02
3.871919214725494385e-02
6.027511507272720337e-02
-7.312273234128952026e-02
-4.016641899943351746e-02
1.270029693841934204e-02
-8.222363889217376709e-03
-7.330016791820526123e-02
-8.484093099832534790e-02
-7.272960990667343140e-02
4.662994295358657837e-02
6.770922988653182983e-02
3.567740321159362793e-03
7.800563424825668335e-02
-7.953383773565292358e-02
-3.336331620812416077e-02
2.110356688499450684e-01
-2.428580820560455322e-01
-3.372776880860328674e-02
8.144135028123855591e-02
-4.745361953973770142e-02
2.466157823801040649e-02
2.291241437196731567e-01
1.790521442890167236e-01
1.508300453424453735e-01
2.249576896429061890e-01
2.847808785736560822e-02
8.136630058288574219e-02
-2.768324017524719238e-01
6.860385183244943619e-03
-1.723604947328567505e-01
-5.984570458531379700e-02
-7.122942060232162476e-02
1.230566650629043579e-01
4.776320978999137878e-02
4.014520719647407532e-02
-6.320109218358993530e-02
-1.309270411729812622e-02
-1.479099970310926437e-02
6.879859417676925659e-02
6.724262982606887817e-02
-6.683617085218429565e-02
8.592450991272926331e-03
7.654514908790588379e-02
2.934054657816886902e-02
1.170037686824798584e-02
-2.504334151744842529e-01
-1.588867455720901489e-01
2.468551248311996460e-01
-2.682232558727264404e-01
1.430570520460605621e-02
2.626968175172805786e-02
-2.942800521850585938e-01
-2.354776114225387573e-02
2.959084212779998779e-01
1.625725030899047852e-01
1.473210304975509644e-01
2.949004173278808594e-01
-7.642232626676559448e-02
1.063488540239632130e-03
-3.053720295429229736e-01
3.535270318388938904e-02
-2.368016988039016724e-01
4.064638912677764893e-02
2.344237826764583588e-02
1.768483668565750122e-01
-2.436490467516705394e-04
-2.965154685080051422e-02
-4.456049203872680664e-02
-2.666110731661319733e-02
9.838584810495376587e-02
-1.948980242013931274e-02
8.984538726508617401e-03
-1.085258498787879944e-01
1.976402476429939270e-02
1.871456056833267212e-01
2.848979085683822632e-02
5.454191938042640686e-02
-2.692287266254425049e-01
-3.727853298187255859e-01
-8.108011446893215179e-03
-6.911361217498779297e-02
8.557226508855819702e-02
8.456338196992874146e-02
2.013008296489715576e-02
-2.201110124588012695e-03
2.453149110078811646e-02
5.362157896161079407e-02
-6.889098882675170898e-02
-1.132207661867141724e-01
-7.066871039569377899e-03
-7.291638851165771484e-02
6.002256646752357483e-02
-2.130594849586486816e-02
-2.809307351708412170e-02
-4.235297068953514099e-02
4.713292419910430908e-02
-4.717445746064186096e-02
-2.971457131206989288e-02
-1.460490375757217407e-02
3.806042298674583435e-02
5.115214735269546509e-02
-7.133856415748596191e-02
-7.546582818031311035e-02
2.857890166342258453e-02
9.515208750963211060e-02
9.964455664157867432e-02
4.293228313326835632e-02
-6.601955741643905640e-02
4.725204780697822571e-02
-4.437242634594440460e-03
-4.922094196081161499e-02
-4.095553979277610779e-02
-4.444683343172073364e-02
8.777162991464138031e-03
4.871415346860885620e-02
-7.187140733003616333e-02
-6.636321544647216797e-02
-2.228620648384094238e-02
6.475044041872024536e-02
3.553725406527519226e-02
-3.047000616788864136e-03
5.265253037214279175e-02
2.745198085904121399e-02
1.159659121185541153e-02
6.714344769716262817e-02
4.502644017338752747e-02
7.149315625429153442e-02
-8.179059624671936035e-02
2.464056015014648438e-02
5.780352279543876648e-02
4.593887180089950562e-02
2.303421311080455780e-02
-3.436088934540748596e-02
2.982560545206069946e-02
6.219940632581710815e-02
9.559715166687965393e-03
-1.327670924365520477e-02
-2.551665715873241425e-02
-3.535424917936325073e-02
-3.593000769615173340e-02
-3.484615311026573181e-02
-2.770857699215412140e-02
-5.892116110771894455e-03
-4.308732599020004272e-02
-4.935959354043006897e-02
-2.136245369911193848e-02
5.071903020143508911e-02
-5.176980420947074890e-02
-6.733246147632598877e-03
-2.845030650496482849e-02
2.811978012323379517e-02
5.640660971403121948e-02
-8.307248353958129883e-03
2.576564997434616089e-02
-5.107124522328376770e-02
5.065450817346572876e-02
4.509965330362319946e-02
8.307788521051406860e-02
8.301197737455368042e-02
8.438097685575485229e-02
2.700780332088470459e-02
-2.426807209849357605e-02
5.353793501853942871e-03
2.346561104059219360e-02
-2.925290539860725403e-02
6.254016607999801636e-02
4.617894440889358521e-02
1.561519503593444824e-02
7.375728338956832886e-02
-1.348356157541275024e-02
7.576236873865127563e-02
3.926447778940200806e-02
-6.768516451120376587e-02
-7.421441376209259033e-02
5.482874810695648193e-03
-8.178693056106567383e-02
2.873603254556655884e-02
-2.554303407669067383e-02
3.990837186574935913e-02
9.015060961246490479e-03
-3.081106022000312805e-02
7.398673146963119507e-02
-2.304021269083023071e-02
7.370739430189132690e-02
-4.618213325738906860e-02
-8.400341868400573730e-02
8.884653449058532715e-03
-6.518612056970596313e-02
3.207034617662429810e-02
-6.034576892852783203e-02
-9.791128337383270264e-03
-4.964021220803260803e-02
-1.338154077529907227e-03
-6.601685285568237305e-02
-6.884255260229110718e-02
-8.154957741498947144e-02
-1.821171492338180542e-02
-6.979758292436599731e-02
-7.350581884384155273e-02
6.653932482004165649e-02
4.703278094530105591e-02
7.817129045724868774e-02
-4.958002269268035889e-02
-5.385750904679298401e-02
2.682743966579437256e-02
-3.019697591662406921e-02
4.101628810167312622e-02
5.875841528177261353e-02
-4.779465124011039734e-02
4.149978607892990112e-02
3.394477069377899170e-03
4.033926874399185181e-02
8.522801846265792847e-02
2.963930368423461914e-02
-5.832283198833465576e-02
1.481369882822036743e-02
3.938374668359756470e-02
-1.656477153301239014e-02
-4.305083304643630981e-02
-5.462974682450294495e-02
-1.807013899087905884e-02
-8.562002331018447876e-02
-3.691973537206649780e-02
-1.798637956380844116e-02
-3.159004822373390198e-02
-8.115265518426895142e-02
5.048320442438125610e-02
-7.174851000308990479e-02
-1.091828197240829468e-02
5.059470981359481812e-02
-5.102857947349548340e-02
-3.502594307065010071e-02
-6.589312851428985596e-02
-6.161928176879882812e-03
-2.037700265645980835e-02
-3.136920928955078125e-02
-6.593324244022369385e-03
2.343967556953430176e-03
-2.475586906075477600e-02
-3.300840780138969421e-02
8.574698120355606079e-02
-5.775010585784912109e-02
7.539948076009750366e-02
-6.928128004074096680e-02
5.291556566953659058e-02
-1.189878582954406738e-02
9.688287973403930664e-04
2.838455885648727417e-02
-3.672821074724197388e-02
3.376189619302749634e-02
-3.572155907750129700e-02
8.027500659227371216e-02
6.399922072887420654e-03
-3.877866640686988831e-02
2.273225784301757812e-02
2.033355832099914551e-02
-1.828866451978683472e-02
-6.877660006284713745e-02
-6.465927511453628540e-02
7.614486664533615112e-02
2.974706143140792847e-02
-4.254097491502761841e-02
-6.418535858392715454e-02
-6.964586675167083740e-02
-7.872651517391204834e-02
-6.072578579187393188e-02
2.124896645545959473e-02
-5.446181818842887878e-02
4.687560349702835083e-02
-8.319139480590820312e-02
-6.118727475404739380e-02
-5.769711732864379883e-02
-5.275730043649673462e-02
6.702659279108047485e-02
-4.270481690764427185e-02
5.415827780961990356e-02
-3.130941092967987061e-02
3.498558700084686279e-02
4.008803516626358032e-02
6.807481497526168823e-02
6.118900328874588013e-02
-1.504488289356231689e-03
-5.206093192100524902e-04
3.493674844503402710e-02
4.731120914220809937e-02
8.105946332216262817e-02
6.218644231557846069e-02
-4.707470536231994629e-02
6.930241733789443970e-02
-5.457759648561477661e-02
6.835331767797470093e-02
7.341968268156051636e-02
5.693090707063674927e-02
-2.444951236248016357e-02
-6.916238367557525635e-02
7.196786254644393921e-02
-8.239480108022689819e-02
7.070704549551010132e-02
2.664483338594436646e-02
-4.387708753347396851e-02
-3.519898280501365662e-02
-6.334383040666580200e-02
-7.840772718191146851e-02
-8.183651417493820190e-02
-4.234511777758598328e-02
8.390519767999649048e-02
-7.938847690820693970e-02
-4.104650393128395081e-02
-9.992912411689758301e-03
-3.502349182963371277e-02
7.535328716039657593e-02
8.142292499542236328e-04
-1.696776598691940308e-02
3.383132815361022949e-02
-3.582214564085006714e-02
8.151418715715408325e-02
-5.735177546739578247e-02
-2.197511494159698486e-03
2.089307457208633423e-02
1.723796129226684570e-03
-7.095644623041152954e-02
4.520847648382186890e-02
-5.651018768548965454e-02
-6.216745078563690186e-02
-7.006391137838363647e-02
-2.344102039933204651e-02
-7.614322751760482788e-02
-1.011568307876586914e-02
-4.710884764790534973e-02
-8.501096814870834351e-02
5.298490077257156372e-02
-4.274132847785949707e-02
4.705984145402908325e-02
3.244512528181076050e-02
7.273290306329727173e-02
5.683053284883499146e-02
6.035570055246353149e-02
6.798068434000015259e-02
-1.540922373533248901e-02
7.891472429037094116e-02
5.052366107702255249e-02
3.502845764160156250e-02
-6.669089198112487793e-04
2.011979371309280396e-02
8.494209498167037964e-02
4.093719273805618286e-02
-3.022281825542449951e-02
-5.864337831735610962e-02
3.350955247879028320e-02
6.830245256423950195e-04
-1.229944825172424316e-02
3.564720600843429565e-02
-1.075259596109390259e-02
-3.580227494239807129e-04
4.795285314321517944e-02
-7.273496687412261963e-02
6.690584868192672729e-02
1.014542579650878906e-02
-8.023305237293243408e-02
-1.606737822294235229e-02
-5.948531255125999451e-02
-3.510293737053871155e-02
-1.481924206018447876e-02
-4.897743463516235352e-03
-4.359111189842224121e-04
-7.870373874902725220e-02
7.026105374097824097e-02
-3.680749610066413879e-02
-8.156538009643554688e-02
4.204612225294113159e-02
-6.074502319097518921e-02
-3.188356757164001465e-03
8.524807542562484741e-02
-2.020608633756637573e-02
-2.341571077704429626e-02
4.950625449419021606e-02
-7.763248682022094727e-02
-8.035735040903091431e-02
1.239009946584701538e-02
-7.439687848091125488e-02
7.734069973230361938e-02
5.572444945573806763e-02
-3.964319080114364624e-02
3.687632828950881958e-02
-3.936400264501571655e-02
-3.565887734293937683e-02
6.382168084383010864e-02
-1.909007877111434937e-02
7.559371739625930786e-02
-4.759928584098815918e-02
2.746217697858810425e-02
2.655884623527526855e-02
-3.834988921880722046e-02
8.081483095884323120e-02
5.021800845861434937e-02
-4.294537007808685303e-03
-1.718707382678985596e-02
8.224441856145858765e-02
-2.990669012069702148e-02
3.937929868698120117e-04
-7.216081023216247559e-02
-2.962915971875190735e-02
3.756523132324218750e-03
-2.987064421176910400e-03
-5.130494385957717896e-02
3.686604648828506470e-02
-3.781081736087799072e-02
-2.859584614634513855e-02
1.951043307781219482e-02
4.439652711153030396e-02
7.982689887285232544e-02
-8.565433323383331299e-03
-7.321470975875854492e-02
2.233764529228210449e-02
-6.325542926788330078e-03
7.988805323839187622e-02
-1.620374619960784912e-02
3.365413844585418701e-02
-1.254772394895553589e-02
5.148277431726455688e-02
3.189526498317718506e-03
-1.468854397535324097e-02
-1.941263675689697266e-03
7.767841964960098267e-02
6.487981230020523071e-02
6.384485214948654175e-02
4.072008281946182251e-02
-6.354547291994094849e-02
-6.332713365554809570e-02
-7.225397974252700806e-02
6.057184189558029175e-02
8.196360617876052856e-02
3.376001864671707153e-02
-2.366848289966583252e-02
-4.793534800410270691e-02
7.697045803070068359e-03
-5.235874280333518982e-02
-7.004515826702117920e-02
-8.348141610622406006e-02
4.192493110895156860e-02
4.959604889154434204e-02
3.305336087942123413e-02
-2.174694836139678955e-02
-7.123540341854095459e-02
-2.230209112167358398e-02
-4.484875872731208801e-02
-4.657961055636405945e-02
-4.731182008981704712e-02
4.710934311151504517e-02
-5.573363229632377625e-02
8.671052753925323486e-03
7.806954532861709595e-02
3.594519942998886108e-02
1.685538142919540405e-02
4.480797797441482544e-02
4.659313708543777466e-02
2.720609307289123535e-02
-8.059887588024139404e-02
2.904629707336425781e-02
-1.668301969766616821e-02
3.482282906770706177e-02
8.235263079404830933e-02
-4.019428417086601257e-02
-1.181557774543762207e-02
7.136694341897964478e-02
7.841289788484573364e-02
2.014479786157608032e-02
3.280328959226608276e-02
-5.414031073451042175e-02
-2.664927020668983459e-02
-2.171266824007034302e-02
-2.816328778862953186e-02
-5.891475453972816467e-02
-5.587700754404067993e-02
6.649946421384811401e-02
-1.810004562139511108e-02
-1.065113395452499390e-02
-8.531253784894943237e-02
4.728584736585617065e-02
3.805925697088241577e-02
2.575451135635375977e-02
5.145619064569473267e-02
2.543833851814270020e-02
4.578886181116104126e-02
1.699961721897125244e-02
1.127662509679794312e-02
7.180326431989669800e-02
-3.578150272369384766e-02
7.405873388051986694e-02
6.743935495615005493e-02
5.181921273469924927e-02
-2.350513264536857605e-02
-8.134640008211135864e-02
5.768767744302749634e-02
6.933247298002243042e-02
2.337024360895156860e-02
3.838376700878143311e-02
-4.436801373958587646e-02
2.592096477746963501e-02
2.030931413173675537e-02
6.195784360170364380e-02
7.229609042406082153e-02
3.947413712739944458e-02
7.803032547235488892e-02
3.755260258913040161e-02
-1.502985507249832153e-02
6.719738990068435669e-02
-5.701258778572082520e-04
1.800861954689025879e-02
-3.865972161293029785e-02
5.962369590997695923e-02
-3.422187268733978271e-02
7.190204411745071411e-02
-5.265592038631439209e-02
7.318670302629470825e-02
-1.099400222301483154e-02
2.318681776523590088e-02
-4.982009530067443848e-03
5.414315313100814819e-02
1.723498851060867310e-02
-1.681759953498840332e-02
6.250917166471481323e-02
-3.594284877181053162e-02
1.063060760498046875e-02
-3.032487630844116211e-02
-7.874305546283721924e-02
6.865514069795608521e-02
2.275586128234863281e-03
5.119311064481735229e-02
7.882056385278701782e-02
-1.880146563053131104e-02
6.708934903144836426e-03
-1.327604800462722778e-02
-5.023558810353279114e-02
9.205400943756103516e-03
2.799280732870101929e-02
-1.877098530530929565e-02
-1.082746684551239014e-02
3.853166103363037109e-02
7.775019854307174683e-02
8.166883140802383423e-02
5.229070037603378296e-02
-3.920631855726242065e-02
4.386807233095169067e-02
-5.974313616752624512e-02
2.661770582199096680e-02
-7.551193237304687500e-03
4.126181453466415405e-02
1.075918227434158325e-02
-4.381886124610900879e-02
1.638434827327728271e-02
1.470105350017547607e-02
-1.694243401288986206e-02
7.191701978445053101e-02
2.390334755182266235e-02
-1.240310072898864746e-02
-2.190297842025756836e-02
4.087982326745986938e-02
-6.215453147888183594e-02
1.875125616788864136e-02
2.424308657646179199e-02
-3.244508430361747742e-02
-1.570255309343338013e-02
-3.776931390166282654e-02
6.191994994878768921e-02
-3.981907293200492859e-02
-3.426754474639892578e-02
4.807457327842712402e-03
2.000303566455841064e-02
-3.368114307522773743e-02
-1.662518084049224854e-02
-4.167123883962631226e-02
-8.229608088731765747e-02
-5.289248004555702209e-02
-5.162360891699790955e-02
1.329170912504196167e-02
-6.891475617885589600e-02
-3.713672980666160583e-02
-7.475782185792922974e-02
-8.439485728740692139e-02
6.262477487325668335e-02
6.950562447309494019e-02
-2.742265537381172180e-02
-3.080957010388374329e-02
-8.398570865392684937e-02
-1.577015966176986694e-02
-2.168692648410797119e-02
-7.725929468870162964e-02
4.170773178339004517e-02
-2.397070825099945068e-02
2.881797403097152710e-02
-7.038500905036926270e-02
-5.941174924373626709e-03
-5.983983725309371948e-02
-2.110996842384338379e-02
7.610908895730972290e-02
-4.615741595625877380e-02
7.104896008968353271e-03
4.766035825014114380e-02
2.247106283903121948e-02
-7.847227156162261963e-02
7.174066454172134399e-02
-7.004915177822113037e-02
-8.312490582466125488e-02
-6.653374433517456055e-02
-3.645448386669158936e-02
-6.878534704446792603e-02
1.411796361207962036e-02
-5.321674421429634094e-02
7.524754852056503296e-02
-2.641303837299346924e-02
1.537859439849853516e-02
8.445886522531509399e-02
1.766217499971389771e-02
-8.152265101671218872e-02
1.712594181299209595e-02
4.991728812456130981e-02
-8.334666490554809570e-02
-5.948950350284576416e-02
-5.645694956183433533e-02
5.635469406843185425e-02
7.799409329891204834e-03
-1.250757277011871338e-02
3.648073226213455200e-02
2.905751764774322510e-02
-3.291587531566619873e-02
-7.546544075012207031e-04
-7.991302013397216797e-02
4.196230322122573853e-02
-3.404995799064636230e-02
-2.914674580097198486e-03
4.595471173524856567e-02
3.661543875932693481e-02
-3.161059319972991943e-02
-8.253057301044464111e-02
-8.341077715158462524e-02
7.836415618658065796e-02
-1.614429056644439697e-02
-6.292699277400970459e-02
4.902518540620803833e-02
4.092439264059066772e-02
6.698428839445114136e-02
4.136680811643600464e-02
-5.003672838211059570e-02
2.841196954250335693e-02
3.489218652248382568e-03
-4.021618142724037170e-02
-1.351942121982574463e-02
2.884610742330551147e-02
-8.618794381618499756e-03
-5.977573990821838379e-02
8.346939831972122192e-02
1.096194982528686523e-02
4.402316361665725708e-02
7.188553363084793091e-02
3.413625806570053101e-02
4.046451300382614136e-02
4.276149906218051910e-03
7.322456687688827515e-02
-6.305821985006332397e-02
8.407261222600936890e-02
1.515438407659530640e-02
-7.218763977289199829e-02
-7.664582133293151855e-02
-2.251663058996200562e-02
-6.620025634765625000e-02
4.046773165464401245e-02
2.568914741277694702e-02
2.206254750490188599e-02
-8.070625364780426025e-02
-2.373004890978336334e-02
6.251029670238494873e-03
-6.430834066122770309e-03
-3.185224160552024841e-02
8.052561432123184204e-03
-6.850526481866836548e-02
6.791272759437561035e-02
-9.942151606082916260e-03
-8.305846154689788818e-02
-3.982248529791831970e-02
-3.293663263320922852e-02
3.500401973724365234e-03
6.525772064924240112e-02
7.865538820624351501e-03
-3.088261559605598450e-02
-1.336284261196851730e-02
7.348982989788055420e-02
3.688225522637367249e-02
3.459856659173965454e-02
-2.976200543344020844e-02
-2.579378336668014526e-02
-1.490205712616443634e-02
6.628418713808059692e-02
6.850423663854598999e-02
5.245338007807731628e-02
-3.208183124661445618e-02
-1.844230294227600098e-02
-1.655323430895805359e-02
9.248785674571990967e-03
3.278213739395141602e-02
-1.258673518896102905e-02
3.179734945297241211e-02
9.969726949930191040e-02
-6.760924309492111206e-02
-7.616161555051803589e-02
5.176429636776447296e-03
5.879811942577362061e-02
-9.181834757328033447e-02
-4.227450862526893616e-02
-1.449837535619735718e-02
-1.696807146072387695e-02
-3.688960894942283630e-02
8.643408305943012238e-03
-1.192116178572177887e-02
7.370694726705551147e-02
6.744608283042907715e-02
-1.234582252800464630e-02
-9.330085478723049164e-03
2.918556705117225647e-02
2.722955644130706787e-01
8.953499048948287964e-02
1.689421385526657104e-01
5.934588611125946045e-03
-1.968455165624618530e-01
-7.709737867116928101e-02
1.069374382495880127e-03
-1.941944509744644165e-01
-1.672159135341644287e-01
-2.274664342403411865e-01
-9.323509037494659424e-02
4.891137033700942993e-02
2.299775332212448120e-01
-4.293612763285636902e-02
-2.382404059171676636e-01
2.320186793804168701e-01
-2.698884010314941406e-01
-1.368600688874721527e-02
-1.629140973091125488e-02
2.279086969792842865e-02
-1.956602185964584351e-01
-6.505282223224639893e-02
8.223018050193786621e-02
6.950230896472930908e-02
7.750637084245681763e-02
8.648870140314102173e-02
5.258947610855102539e-02
1.956048756837844849e-01
2.789893560111522675e-02
-3.229219019412994385e-01
-3.611722588539123535e-01
-1.924763917922973633e-01
4.108477532863616943e-01
-1.394152641296386719e-01
1.142107769846916199e-01
-8.500871807336807251e-02
-3.733075857162475586e-01
-1.099932193756103516e-02
-7.084006816148757935e-02
-1.802930235862731934e-01
-9.437556564807891846e-02
-1.537600904703140259e-02
-7.055368274450302124e-02
-3.523524105548858643e-02
-1.597932074218988419e-03
-1.957862824201583862e-02
-2.475229203701019287e-01
4.008950293064117432e-01
-1.759535819292068481e-01
1.427356153726577759e-01
1.112331971526145935e-01
1.230622828006744385e-01
-2.828842401504516602e-01
-7.436870038509368896e-02
6.022915244102478027e-02
-7.573404908180236816e-02
-3.914049640297889709e-02
1.417205780744552612e-01
9.386772662401199341e-02
4.797292649745941162e-01
1.437203586101531982e-01
-3.308198153972625732e-01
-4.528659582138061523e-01
-2.578293979167938232e-01
2.830910086631774902e-01
-3.624470233917236328e-01
-2.721190452575683594e-01
3.545617312192916870e-02
-5.830432176589965820e-01
-6.724035739898681641e-02
-4.045958817005157471e-02
1.727449595928192139e-01
2.745237015187740326e-02
3.614068627357482910e-01
4.646273702383041382e-02
2.707076817750930786e-02
-2.974310815334320068e-01
9.541917592287063599e-02
-1.878559142351150513e-01
4.202796816825866699e-01
-3.101313710212707520e-01
4.486923217773437500e-01
7.529194653034210205e-02
5.677663721144199371e-03
-1.292406916618347168e-01
-1.270050406455993652e-01
-2.944483757019042969e-01
-1.758799888193607330e-02
1.937043517827987671e-01
1.536017656326293945e-01
-8.021613210439682007e-02
6.623279452323913574e-01
1.460717916488647461e-01
-3.064354658126831055e-01
-3.435206413269042969e-01
-4.239916801452636719e-01
3.154774606227874756e-01
-4.301224946975708008e-01
-2.878670990467071533e-01
-1.057328283786773682e-02
-6.703135371208190918e-01
4.491884261369705200e-02
5.009111016988754272e-02
1.241844743490219116e-01
1.187719181180000305e-01
4.654036462306976318e-01
3.717473894357681274e-02
-7.870899140834808350e-02
-2.307090610265731812e-01
5.951581522822380066e-02
-2.313319891691207886e-01
5.557742118835449219e-01
-2.265705913305282593e-01
4.299722909927368164e-01
6.833885610103607178e-02
2.847604081034660339e-02
-1.357695311307907104e-01
-1.317312121391296387e-01
-2.954506576061248779e-01
-5.385285988450050354e-02
1.669553965330123901e-01
5.517401173710823059e-02
-6.010150536894798279e-02
8.215761780738830566e-01
1.602473706007003784e-01
-2.685303390026092529e-01
-3.331592381000518799e-01
-3.806723058223724365e-01
4.209255576133728027e-01
-4.477457106113433838e-01
-1.227680891752243042e-01
-4.401680082082748413e-02
-6.784734129905700684e-01
-5.473858490586280823e-02
2.112817019224166870e-01
9.804505109786987305e-02
1.464913338422775269e-01
2.512515783309936523e-01
-2.619395777583122253e-02
-3.800168260931968689e-02
-8.370646834373474121e-02
-1.290900446474552155e-02
-1.425258070230484009e-01
5.348077416419982910e-01
-6.419735401868820190e-02
3.407311737537384033e-01
1.093789041042327881e-01
5.667653307318687439e-02
-7.775954902172088623e-02
-2.634906768798828125e-01
-1.307558715343475342e-01
-5.662078410387039185e-02
4.470878839492797852e-02
4.660274833440780640e-02
2.290579723194241524e-03
6.826382875442504883e-01
2.799275517463684082e-01
-3.282126784324645996e-01
-4.374783933162689209e-01
-4.545348584651947021e-01
3.842035233974456787e-01
-8.896590024232864380e-02
-1.840872317552566528e-02
1.574273556470870972e-01
-1.488766670227050781e-01
-1.739772707223892212e-01
3.903315365314483643e-01
3.635129630565643311e-01
-3.357571363449096680e-01
2.947770357131958008e-01
1.066025272011756897e-01
-2.990122139453887939e-01
-2.526845932006835938e-01
-8.360638283193111420e-03
1.331133767962455750e-02
3.089060783386230469e-01
-1.946145668625831604e-02
2.659863531589508057e-01
2.067961245775222778e-01
4.654514417052268982e-02
-1.936452686786651611e-01
-1.897252053022384644e-01
-1.432548612356185913e-01
-2.877527177333831787e-01
-1.375248432159423828e-01
4.720680043101310730e-02
3.131951093673706055e-01
5.466141700744628906e-01
-4.436377808451652527e-02
-3.614502251148223877e-01
-3.691006600856781006e-01
-1.427925974130630493e-01
4.405407011508941650e-01
-2.357920855283737183e-01
2.442047148942947388e-01
4.178392887115478516e-01
-4.161849915981292725e-01
-1.318289637565612793e-01
5.470842719078063965e-01
4.124908447265625000e-01
1.271108631044626236e-02
6.730151176452636719e-01
-2.754492163658142090e-01
-2.993000745773315430e-01
-5.826432704925537109e-01
3.912470489740371704e-02
-2.054632753133773804e-01
6.721553206443786621e-02
-2.568343579769134521e-01
6.831893920898437500e-01
4.685445129871368408e-01
1.408737301826477051e-01
-3.878052532672882080e-01
-1.378988027572631836e-01
1.661434918642044067e-01
-3.088949322700500488e-01
-4.233103990554809570e-01
9.973729401826858521e-02
-1.484189629554748535e-01
8.228578567504882812e-01
-5.876458436250686646e-02
-2.212226688861846924e-01
-6.518846750259399414e-01
-6.674802303314208984e-01
6.253024935722351074e-01
-1.096373051404953003e-01
-3.029996752738952637e-01
5.288600325584411621e-01
-2.417852729558944702e-01
-1.118865981698036194e-01
3.818345069885253906e-01
1.177651435136795044e-01
-6.071524024009704590e-01
-9.394166991114616394e-03
4.327405989170074463e-01
-3.421369791030883789e-01
-5.378640890121459961e-01
4.096553102135658264e-02
-4.231519699096679688e-01
5.404939651489257812e-01
2.857698798179626465e-01
-7.512267213314771652e-03
1.068830847740173340e+00
2.487858682870864868e-01
-5.173936486244201660e-01
-1.332133859395980835e-01
-5.596734285354614258e-01
-2.909481823444366455e-01
-1.269744336605072021e-01
3.151356875896453857e-01
2.183360010385513306e-01
7.692342996597290039e-01
5.971990823745727539e-01
-3.344861865043640137e-01
-3.150810599327087402e-01
-2.184944599866867065e-01
-5.728501081466674805e-01
-2.781306505203247070e-01
-4.802082479000091553e-01
-4.859277307987213135e-01
2.152340859174728394e-01
-3.723942339420318604e-01
3.673924505710601807e-01
-5.872219800949096680e-01
-7.031931281089782715e-01
-5.593954920768737793e-01
4.261287748813629150e-01
1.932438611984252930e-01
-8.268598318099975586e-01
5.772672891616821289e-01
-4.160575270652770996e-01
6.424088776111602783e-02
4.023426175117492676e-01
-4.831494688987731934e-01
9.564458727836608887e-01
1.037308335304260254e+00
-2.457614243030548096e-01
-7.752788811922073364e-02
-2.563351988792419434e-01
7.314472794532775879e-01
1.222598925232887268e-01
5.324013531208038330e-02
-7.106115669012069702e-02
3.000611662864685059e-01
8.149380087852478027e-01
-3.247652947902679443e-01
3.885817527770996094e-01
3.445199728012084961e-01
-3.459893167018890381e-01
-1.765208840370178223e-01
5.342172458767890930e-02
-3.173639178276062012e-01
-2.197996973991394043e-01
2.197256311774253845e-02
4.416892826557159424e-01
-6.373817920684814453e-01
-4.624426960945129395e-01
-1.119897933676838875e-03
-3.357060551643371582e-01
4.355239272117614746e-01
-5.889998674392700195e-01
6.277458667755126953e-01
-5.437888503074645996e-01
4.216493964195251465e-01
-9.919116646051406860e-02
3.516673445701599121e-01
8.565534353256225586e-01
8.021025061607360840e-01
-8.865822851657867432e-02
-1.089024096727371216e-01
3.528920114040374756e-01
6.269210577011108398e-01
-3.035517409443855286e-02
1.071064099669456482e-01
-9.262710809707641602e-02
6.001644730567932129e-01
5.705047845840454102e-01
9.676752239465713501e-02
-6.219655275344848633e-01
1.761646009981632233e-02
3.088054060935974121e-01
1.544031798839569092e-01
1.206125617027282715e-01
9.548488259315490723e-02
-1.734414100646972656e-01
7.622593641281127930e-02
-1.538732554763555527e-02
-5.354303717613220215e-01
-3.809275627136230469e-01
1.183074340224266052e-02
-4.505788087844848633e-01
6.365340948104858398e-02
1.640866696834564209e-01
5.125190019607543945e-01
-6.760364770889282227e-01
4.881295859813690186e-01
-3.545024618506431580e-02
2.780716717243194580e-01
8.375000357627868652e-01
7.079772353172302246e-01
-1.696969717741012573e-01
1.380520015954971313e-01
2.031975835561752319e-01
-1.027254685759544373e-01
2.391578629612922668e-02
1.778133660554885864e-01
-2.559730708599090576e-01
5.921500325202941895e-01
3.508590161800384521e-01
3.169966638088226318e-01
-6.962192058563232422e-01
-2.481288760900497437e-01
7.907562255859375000e-01
8.527152240276336670e-02
-1.690612435340881348e-01
4.553399682044982910e-01
-4.520551562309265137e-01
2.150168865919113159e-01
-2.148913741111755371e-01
1.510221064090728760e-01
-2.166998982429504395e-01
2.926822006702423096e-01
-3.051248490810394287e-01
1.596660539507865906e-02
5.258069038391113281e-01
1.706349663436412811e-02
-4.560676217079162598e-01
3.667385876178741455e-01
-6.537269055843353271e-02
4.152134656906127930e-01
4.220871329307556152e-01
5.262547358870506287e-02
-4.341374635696411133e-01
7.110615819692611694e-02
-3.084317222237586975e-02
-2.912821173667907715e-01
1.620873361825942993e-01
6.122306734323501587e-02
-2.034092247486114502e-01
7.011448740959167480e-01
2.201414555311203003e-01
3.890036642551422119e-01
-7.914022803306579590e-01
-3.620138466358184814e-01
3.557834923267364502e-01
-2.983015775680541992e-01
1.097126677632331848e-01
-2.988137304782867432e-02
-2.988477945327758789e-01
-4.239946603775024414e-02
2.061680853366851807e-01
-1.832702755928039551e-02
1.287155896425247192e-01
1.570284217596054077e-01
-1.310103237628936768e-01
2.583809494972229004e-01
-2.663138508796691895e-02
1.239553093910217285e-02
-2.650583684444427490e-01
3.608585894107818604e-01
-2.143511474132537842e-01
1.232032999396324158e-01
1.736147999763488770e-01
1.033559441566467285e-01
-1.515768468379974365e-01
-4.468131810426712036e-02
8.610244840383529663e-03
-2.174288593232631683e-02
2.219874858856201172e-01
1.036842167377471924e-02
-9.200658649206161499e-02
3.734906315803527832e-01
2.555187605321407318e-02
1.628407984972000122e-01
-3.828180730342864990e-01
-3.341895043849945068e-01
4.167127311229705811e-01
-9.047498553991317749e-02
3.284015357494354248e-01
1.684962213039398193e-01
-4.012257754802703857e-01
1.598135977983474731e-01
3.821434974670410156e-01
-5.001898854970932007e-02
1.331665515899658203e-01
1.579568833112716675e-01
-2.672855854034423828e-01
3.439079523086547852e-01
-9.400500915944576263e-03
8.862945437431335449e-02
-4.141252636909484863e-01
2.997728884220123291e-01
-3.077462911605834961e-01
2.475795298814773560e-01
1.802898943424224854e-01
1.823484748601913452e-01
-1.548171192407608032e-01
-6.741048395633697510e-02
-2.751671476289629936e-03
1.188769191503524780e-01
-6.740849465131759644e-03
7.269187271595001221e-02
-9.815477579832077026e-02
6.055603623390197754e-01
1.763532310724258423e-01
-1.237073242664337158e-01
-5.509940385818481445e-01
-4.627883136272430420e-01
5.483341217041015625e-01
-4.386363625526428223e-01
3.469176590442657471e-01
2.385740727186203003e-01
-6.333127617835998535e-01
1.803191602230072021e-01
6.548582911491394043e-01
1.182429566979408264e-01
2.010515332221984863e-01
3.292706608772277832e-01
-4.635587334632873535e-01
5.896031260490417480e-01
-3.445223346352577209e-02
1.889351196587085724e-02
-3.292411565780639648e-01
3.188925385475158691e-01
-2.648948729038238525e-01
4.460633993148803711e-01
6.720694899559020996e-02
1.311956495046615601e-01
-3.804556131362915039e-01
-1.509335786104202271e-01
1.528690159320831299e-01
2.672390341758728027e-01
1.269718259572982788e-01
1.991682648658752441e-01
-8.960594236850738525e-02
6.100400686264038086e-01
2.565124928951263428e-01
1.173301227390766144e-02
-5.419157147407531738e-01
-6.096104979515075684e-01
3.363902866840362549e-01
-3.249996006488800049e-01
3.102963566780090332e-01
1.704011857509613037e-01
-3.226844668388366699e-01
1.513538695871829987e-02
4.892247021198272705e-01
3.232233226299285889e-02
6.787991523742675781e-02
2.127888649702072144e-01
-4.156691730022430420e-01
4.087885618209838867e-01
-7.049261033535003662e-02
1.714112237095832825e-02
-2.646395564079284668e-01
2.953305281698703766e-02
-2.315652072429656982e-01
1.955254375934600830e-01
9.012351185083389282e-02
1.017686352133750916e-01
-3.658507168292999268e-01
-4.232073202729225159e-02
5.225612595677375793e-02
3.236326277256011963e-01
9.681932628154754639e-02
3.803987056016921997e-02
4.491080716252326965e-02
4.033713638782501221e-01
1.461668610572814941e-01
-7.635360956192016602e-02
-4.720993936061859131e-01
-5.222891569137573242e-01
1.267829239368438721e-01
7.277949713170528412e-03
4.005727171897888184e-01
7.075835019350051880e-02
-3.185399472713470459e-01
-8.156891912221908569e-02
8.706519007682800293e-02
-4.015946760773658752e-02
-7.912030071020126343e-02
1.297684907913208008e-01
-4.606346786022186279e-01
1.085878461599349976e-01
1.349925845861434937e-01
5.669385194778442383e-02
-4.333392083644866943e-01
2.233782261610031128e-01
-1.168308630585670471e-01
1.425767987966537476e-01
3.187220171093940735e-02
-5.230392329394817352e-03
-1.770002990961074829e-01
-9.046670794486999512e-02
2.344200909137725830e-01
1.383369117975234985e-01
-8.605466037988662720e-02
-2.505940385162830353e-02
6.128870323300361633e-02
2.747282385826110840e-01
-2.294146716594696045e-01
1.165740564465522766e-02
-2.457737922668457031e-01
-2.090324908494949341e-01
4.791125655174255371e-02
7.860177010297775269e-02
3.639443516731262207e-01
-3.530520945787429810e-02
-2.527096569538116455e-01
3.759656101465225220e-02
3.203880786895751953e-02
1.982638388872146606e-01
5.428004544228315353e-03
1.447380930185317993e-01
-2.549488246440887451e-01
1.297912746667861938e-01
1.513285040855407715e-01
5.211288481950759888e-02
-2.833474278450012207e-01
1.428561359643936157e-01
-5.540555343031883240e-02
8.859632909297943115e-02
7.540020346641540527e-02
3.172796964645385742e-02
-1.418320089578628540e-01
-2.145185321569442749e-02
1.765732169151306152e-01
-8.990836213342845440e-04
-2.014882713556289673e-01
3.342942893505096436e-02
3.932610154151916504e-03
1.601895391941070557e-01
-2.045024931430816650e-01
7.049306482076644897e-02
-1.029766425490379333e-01
-4.066270589828491211e-02
-9.356953203678131104e-03
-6.747324019670486450e-02
-6.656770408153533936e-02
7.788655906915664673e-02
4.362148791551589966e-02
-4.476189240813255310e-02
6.281241774559020996e-03
-5.785232782363891602e-02
6.634392589330673218e-02
5.794209986925125122e-02
-7.556269317865371704e-02
4.344824701547622681e-02
-6.876876950263977051e-02
8.552636951208114624e-02
4.356073588132858276e-02
8.210646361112594604e-02
8.546933531761169434e-04
3.463566303253173828e-02
-4.016854614019393921e-02
-6.143082678318023682e-02
4.971162229776382446e-02
2.872536331415176392e-02
4.332134872674942017e-02
-5.947402864694595337e-02
-4.769390076398849487e-02
-5.598973855376243591e-02
-4.868824779987335205e-02
6.713905185461044312e-02
4.825384169816970825e-02
-3.008688613772392273e-02
5.060056596994400024e-02
-3.347281739115715027e-02
9.563237428665161133e-03
-1.901208609342575073e-02
-2.966718748211860657e-02
-1.755711436271667480e-02
-3.096437081694602966e-02
4.415222257375717163e-02
-5.550285801291465759e-02
8.229657262563705444e-02
2.870988845825195312e-02
-7.071221619844436646e-02
7.078195363283157349e-02
2.642425894737243652e-02
5.968064069747924805e-04
-6.970173865556716919e-02
-1.958090811967849731e-02
1.671922206878662109e-02
-7.149692624807357788e-02
-5.834239721298217773e-02
7.597220689058303833e-02
8.443751186132431030e-02
6.582472473382949829e-02
-4.980456456542015076e-02
3.324124217033386230e-02
-2.704828232526779175e-02
8.206377178430557251e-02
2.458595484495162964e-02
-8.117519319057464600e-03
1.000931113958358765e-02
7.267586141824722290e-02
3.498928993940353394e-02
-7.272721827030181885e-02
-2.698539569973945618e-02
-2.865744754672050476e-02
7.925101369619369507e-02
3.687455505132675171e-02
-8.471757173538208008e-03
-6.923628598451614380e-02
-6.774663925170898438e-03
-7.377599179744720459e-02
-6.990969926118850708e-02
1.744861155748367310e-02
-2.637793496251106262e-02
-5.527666211128234863e-02
-6.019353866577148438e-03
-1.817591488361358643e-02
-3.015684708952903748e-02
-7.110049575567245483e-02
-3.359090164303779602e-02
-1.052343845367431641e-02
-4.494556412100791931e-02
1.161242276430130005e-02
-1.639514416456222534e-02
1.055318862199783325e-02
2.001117169857025146e-02
-5.819491297006607056e-02
-5.553389340639114380e-02
3.150109201669692993e-02
5.813252180814743042e-02
6.446754187345504761e-02
-2.834706008434295654e-02
1.408094167709350586e-02
-4.703617095947265625e-02
-1.206792145967483521e-02
4.967727512121200562e-02
-4.544041678309440613e-02
-3.541309759020805359e-02
-4.251290485262870789e-02
2.247826009988784790e-02
-1.913420110940933228e-02
5.562914162874221802e-02
6.899439543485641479e-02
-3.576263785362243652e-03
3.962565213441848755e-02
-5.323743447661399841e-02
-2.480900287628173828e-02
1.964048296213150024e-02
-1.988360285758972168e-02
8.078040927648544312e-02
-3.658665716648101807e-02
-3.818792849779129028e-02
-1.098919659852981567e-02
-5.079486221075057983e-02
3.162946552038192749e-02
-1.982392370700836182e-02
7.840221375226974487e-02
8.034490793943405151e-02
4.583116620779037476e-02
2.245196700096130371e-02
-6.476540118455886841e-02
2.254296839237213135e-02
-1.683422178030014038e-02
1.363322138786315918e-03
-1.073599606752395630e-02
1.002889126539230347e-02
5.529470741748809814e-03
-3.860272094607353210e-02
-4.803918302059173584e-02
5.410163849592208862e-02
2.739170193672180176e-02
-6.772413104772567749e-02
-1.038642227649688721e-02
6.231533735990524292e-02
-1.992111653089523315e-02
7.846593111753463745e-02
3.818298131227493286e-02
7.083467394113540649e-02
-1.711506396532058716e-02
6.159991025924682617e-03
-2.580046653747558594e-02
4.993710666894912720e-02
-8.859589695930480957e-03
-3.935597836971282959e-03
-1.584954559803009033e-02
3.371963649988174438e-02
8.211344480514526367e-03
-3.116693347692489624e-02
-6.702914834022521973e-02
7.837144285440444946e-02
4.484387487173080444e-02
6.953599303960800171e-02
4.813721030950546265e-02
8.108248561620712280e-02
3.549180924892425537e-03
-5.862158536911010742e-02
-3.224411979317665100e-02
-6.954407691955566406e-02
4.112509638071060181e-02
1.637118309736251831e-02
-2.717552706599235535e-02
-5.289875343441963196e-02
-7.882440090179443359e-02
5.963856726884841919e-02
-7.686889171600341797e-02
3.668028861284255981e-02
8.383060246706008911e-02
7.708225399255752563e-02
-4.110622033476829529e-02
-6.709293276071548462e-02
5.507246404886245728e-02
-2.759021520614624023e-02
-9.476408362388610840e-03
-4.559971764683723450e-02
-6.357327848672866821e-02
7.214630395174026489e-02
3.570845723152160645e-02
-6.832506507635116577e-02
8.314072340726852417e-02
-5.282227322459220886e-02
-4.433753341436386108e-02
-2.803759649395942688e-02
-2.554886043071746826e-02
-4.010034352540969849e-02
5.200276523828506470e-02
9.380854666233062744e-03
-7.025291770696640015e-02
2.743017673492431641e-02
1.143708825111389160e-03
-6.102206557989120483e-02
3.698810935020446777e-03
-2.857448160648345947e-02
2.494799904525279999e-02
5.901105701923370361e-03
1.697792485356330872e-02
-6.674618273973464966e-02
-6.485970318317413330e-02
-6.216510012745857239e-02
7.090739160776138306e-02
-2.774303406476974487e-02
7.025161385536193848e-02
-7.577948272228240967e-02
-5.167262628674507141e-02
1.060552671551704407e-01
-6.722990423440933228e-02
5.623416230082511902e-02
2.147681824862957001e-02
8.592703379690647125e-03
-1.289036497473716736e-02
6.850703805685043335e-02
3.504814207553863525e-02
-1.909298822283744812e-02
-4.522309452295303345e-02
-6.747881323099136353e-02
2.374872565269470215e-02
-2.128455042839050293e-02
-6.468084454536437988e-02
1.192235350608825684e-01
-1.693305373191833496e-02
3.383602574467658997e-02
3.018500842154026031e-02
-6.977111101150512695e-02
-1.227837651968002319e-01
6.863106042146682739e-02
1.960745640099048615e-02
1.250902414321899414e-01
-9.038458019495010376e-02
2.204039543867111206e-01
9.994399547576904297e-02
1.532466113567352295e-01
-6.301617622375488281e-02
-5.754816159605979919e-02
-2.324539721012115479e-01
-5.502230301499366760e-02
-1.713657826185226440e-01
6.408059597015380859e-02
8.424836397171020508e-02
-7.192053645849227905e-02
-2.286384403705596924e-01
4.620002582669258118e-02
1.023591775447130203e-02
-6.894040107727050781e-02
4.173714667558670044e-02
7.739356905221939087e-02
-1.365819480270147324e-02
-2.218252047896385193e-02
2.911345288157463074e-02
-9.921787679195404053e-02
-6.112386658787727356e-02
1.882630288600921631e-01
2.898824810981750488e-01
1.944936066865921021e-01
2.509542554616928101e-02
5.249559134244918823e-02
-2.611005902290344238e-01
2.735174074769020081e-02
2.051260918378829956e-01
-1.084785386919975281e-01
-1.224381625652313232e-01
1.902716010808944702e-01
-1.651700884103775024e-01
1.111136302351951599e-01
9.957437962293624878e-02
1.906231343746185303e-01
2.781634591519832611e-02
1.769401431083679199e-01
-1.313599795103073120e-01
3.035669624805450439e-01
-6.019464135169982910e-02
-1.426912192255258560e-02
-1.244547590613365173e-01
8.877466619014739990e-02
-2.086290530860424042e-02
6.256103515625000000e-02
2.796911261975765228e-02
2.097233664244413376e-03
-6.067587435245513916e-02
-9.887839853763580322e-02
3.265539184212684631e-02
1.159927397966384888e-01
-4.568947851657867432e-02
9.691882133483886719e-02
8.827994763851165771e-02
2.215749025344848633e-01
-3.517961874604225159e-02
-3.262307494878768921e-02
-3.015902340412139893e-01
-2.907437980175018311e-01
1.943376213312149048e-01
7.251376658678054810e-02
-5.836245417594909668e-02
-6.636731326580047607e-02
-2.738101966679096222e-02
6.899230927228927612e-02
4.739438742399215698e-02
-7.593817263841629028e-02
1.764926761388778687e-01
2.090422064065933228e-01
-8.780726045370101929e-02
9.779346734285354614e-02
-1.768211871385574341e-01
6.237461790442466736e-02
-3.488427028059959412e-02
6.718692183494567871e-02
-1.729114353656768799e-01
1.568681448698043823e-01
9.174755960702896118e-02
-9.113059937953948975e-02
-2.357499003410339355e-01
8.203151822090148926e-02
-7.585097104310989380e-02
6.133848801255226135e-02
9.734807908535003662e-02
6.213904544711112976e-02
-2.194598130881786346e-02
2.970568239688873291e-01
6.162430718541145325e-02
-8.788600564002990723e-02
-5.589117854833602905e-02
-1.665289252996444702e-01
4.556799530982971191e-01
-1.497205942869186401e-01
-2.364064157009124756e-01
2.512677609920501709e-01
-1.332578808069229126e-01
-2.719812989234924316e-01
4.396763630211353302e-03
-1.394015103578567505e-01
2.453135848045349121e-01
4.097098112106323242e-01
3.912523388862609863e-03
2.268997579813003540e-01
-4.289834499359130859e-01
-2.522975392639636993e-02
-3.457228243350982666e-01
1.892059743404388428e-01
-3.596603572368621826e-01
5.806227326393127441e-01
2.174849212169647217e-01
-2.224769443273544312e-01
-3.856936097145080566e-01
3.491968810558319092e-01
-3.389233052730560303e-01
2.152821235358715057e-02
2.537912130355834961e-01
4.115197658538818359e-01
-1.111052110791206360e-01
6.772011518478393555e-01
2.688064873218536377e-01
-1.831329464912414551e-01
-1.680645197629928589e-01
-4.215948581695556641e-01
8.794550895690917969e-01
-2.827616035938262939e-02
-1.706817001104354858e-02
2.740261256694793701e-01
-4.038011133670806885e-01
-4.043836593627929688e-01
2.508557438850402832e-01
-3.840916454792022705e-01
2.025008946657180786e-01
1.926210671663284302e-01
2.725571580231189728e-02
1.679327785968780518e-01
-3.824234306812286377e-01
1.031840965151786804e-02
-7.557088732719421387e-01
7.012212276458740234e-01
-4.837325215339660645e-01
3.717086017131805420e-01
3.600933849811553955e-01
-6.606380641460418701e-02
-3.264152407646179199e-01
1.090632602572441101e-01
7.027106732130050659e-02
-1.047568395733833313e-02
2.812381088733673096e-01
2.508365511894226074e-01
-4.093548059463500977e-01
8.211278915405273438e-01
3.310636878013610840e-01
-5.368450880050659180e-01
-6.714357733726501465e-01
-5.741752386093139648e-01
6.106007099151611328e-01
-4.253156017512083054e-03
7.475257515907287598e-01
1.687765270471572876e-01
-3.488825559616088867e-01
-3.398095667362213135e-01
1.955008506774902344e-01
-4.466452002525329590e-01
7.684176564216613770e-01
1.679842472076416016e-01
1.320621818304061890e-01
-9.421806037425994873e-02
3.510885238647460938e-01
-2.502842992544174194e-02
-8.039922118186950684e-01
3.884775340557098389e-01
-1.943102180957794189e-01
1.314993798732757568e-01
3.609491586685180664e-01
-2.433967292308807373e-01
-2.437247633934020996e-01
4.597963392734527588e-02
2.170002162456512451e-01
-5.480340495705604553e-02
7.524117082357406616e-02
3.049718961119651794e-02
-9.031687378883361816e-01
2.872766852378845215e-01
3.031357824802398682e-01
-6.775383949279785156e-01
-2.959840893745422363e-01
-4.969725310802459717e-01
3.601627945899963379e-01
4.889179170131683350e-01
8.388582468032836914e-01
-5.856822729110717773e-01
3.009136915206909180e-01
-4.832052886486053467e-01
-5.877017378807067871e-01
-1.790641248226165771e-01
5.522804260253906250e-01
-6.586247682571411133e-02
6.199611723423004150e-02
-3.469293415546417236e-01
6.700646877288818359e-01
-7.530291080474853516e-01
-6.771897077560424805e-01
8.832510560750961304e-03
7.196395844221115112e-02
-2.518317103385925293e-01
6.347827911376953125e-01
-2.466855943202972412e-01
-1.753607392311096191e-01
2.226744741201400757e-01
-6.344071030616760254e-01
-1.033058986067771912e-01
-1.232475861907005310e-01
-1.983327567577362061e-01
-1.176379203796386719e+00
-4.854537174105644226e-02
-1.371834129095077515e-01
-9.383440613746643066e-01
2.114262804388999939e-02
2.876833975315093994e-01
-1.793499141931533813e-01
1.815603226423263550e-01
2.556141316890716553e-01
-8.086160421371459961e-01
-1.833398342132568359e-01
-4.507193565368652344e-01
-4.352442920207977295e-01
1.801672875881195068e-01
2.468451410531997681e-01
1.293552219867706299e-01
-1.218308433890342712e-01
-4.670627713203430176e-01
4.647243916988372803e-01
-4.278284311294555664e-01
-8.288627266883850098e-01
8.360272049903869629e-01
1.505732685327529907e-01
-2.383817583322525024e-01
3.458420336246490479e-01
3.841726183891296387e-01
6.952462345361709595e-02
-4.287164807319641113e-01
-8.867068290710449219e-01
-2.627042829990386963e-01
-1.174795404076576233e-01
-1.582127809524536133e-01
-1.153946638107299805e+00
4.154320359230041504e-01
-2.220433764159679413e-02
-1.279269337654113770e+00
-3.607665300369262695e-01
2.355927675962448120e-01
2.114232927560806274e-01
-1.748433858156204224e-01
4.286359846591949463e-01
-9.110040664672851562e-01
-6.395025253295898438e-01
-3.869936168193817139e-01
-3.555231094360351562e-01
4.432236254215240479e-01
4.590801000595092773e-01
6.395764350891113281e-01
-5.970863103866577148e-01
-4.213663041591644287e-01
5.037771463394165039e-01
-2.544978857040405273e-01
-8.538993597030639648e-01
1.082986950874328613e+00
-2.970336079597473145e-01
-1.380845606327056885e-01
-1.965427398681640625e-02
4.694747328758239746e-01
1.893050670623779297e-01
-5.681301355361938477e-01
-4.687608778476715088e-01
-4.422385096549987793e-01
5.672680959105491638e-02
-6.295778751373291016e-01
-1.072605133056640625e+00
5.530217289924621582e-01
3.615353703498840332e-01
-1.210538148880004883e+00
-7.042021155357360840e-01
4.340507984161376953e-01
7.843989729881286621e-01
-7.130135595798492432e-02
7.430045604705810547e-01
-4.191224277019500732e-01
-4.523454979062080383e-02
-3.443173170089721680e-01
1.027657464146614075e-01
1.512840539216995239e-01
8.491280674934387207e-01
2.609137892723083496e-01
-8.699150085449218750e-01
-9.495742917060852051e-01
3.840674459934234619e-01
-4.957072436809539795e-01
-1.014664292335510254e+00
9.353443980216979980e-01
-4.704651534557342529e-01
8.910736441612243652e-02
8.328317664563655853e-03
3.485329151153564453e-01
-1.369999796152114868e-01
-4.666216075420379639e-01
5.831626476719975471e-04
-9.562663435935974121e-01
3.666209280490875244e-01
-1.204851195216178894e-01
-1.406453847885131836e+00
5.760665535926818848e-01
3.344364464282989502e-01
-8.732901215553283691e-01
-6.399806141853332520e-01
5.149391889572143555e-01
3.923692405223846436e-01
-4.146212041378021240e-01
1.356014013290405273e-01
-2.553341686725616455e-01
-1.716805249452590942e-01
-3.133500739932060242e-02
-7.117375135421752930e-01
-1.054529622197151184e-01
8.622448444366455078e-01
6.230067610740661621e-01
-1.930100917816162109e-01
-1.174843430519104004e+00
7.980248332023620605e-02
-7.527544498443603516e-01
-1.100036859512329102e+00
9.019308090209960938e-01
-4.302188754081726074e-01
2.477282583713531494e-01
4.767610430717468262e-01
-1.153915375471115112e-01
-2.873524427413940430e-01
-5.666344165802001953e-01
1.975332051515579224e-01
-4.951458871364593506e-01
-2.082965970039367676e-01
1.279422789812088013e-01
-1.255989432334899902e+00
8.848623633384704590e-01
8.372302651405334473e-01
-5.481817126274108887e-01
-5.487139821052551270e-01
4.708869159221649170e-01
1.733125597238540649e-01
-4.636715054512023926e-01
2.512520551681518555e-01
-4.301571846008300781e-01
-4.953376203775405884e-02
-3.989806026220321655e-02
-2.331087887287139893e-01
-5.744006857275962830e-02
8.791122436523437500e-01
3.853220343589782715e-01
9.865544736385345459e-03
-8.088710308074951172e-01
4.602591097354888916e-01
-2.079594284296035767e-01
-1.040594696998596191e+00
1.061631917953491211e+00
-3.263191878795623779e-01
8.145181089639663696e-02
2.529937028884887695e-01
3.364165127277374268e-01
5.363756045699119568e-02
-9.475532770156860352e-01
-2.877261042594909668e-01
-2.716022133827209473e-01
-3.982927650213241577e-02
1.408636569976806641e-01
-1.094819426536560059e+00
8.883172273635864258e-01
1.252464890480041504e+00
-4.736858904361724854e-01
-8.014339208602905273e-02
7.927990555763244629e-01
-2.627574838697910309e-02
-5.125463604927062988e-01
-1.368600279092788696e-01
-6.821842193603515625e-01
-9.993010759353637695e-02
1.375582069158554077e-01
-4.523850977420806885e-02
-8.598342537879943848e-02
7.026324272155761719e-01
3.684751689434051514e-01
-1.411327123641967773e-01
-3.014990687370300293e-01
1.427868008613586426e-01
4.217942059040069580e-01
-1.702400892972946167e-01
8.277720808982849121e-01
-3.510144352912902832e-01
4.563492536544799805e-01
3.826439678668975830e-01
5.852044820785522461e-01
3.404834270477294922e-01
-4.951152503490447998e-01
2.850672602653503418e-01
4.575263559818267822e-01
-1.014440730214118958e-01
-7.370840013027191162e-02
-9.807884693145751953e-01
1.073090791702270508e+00
1.067204594612121582e+00
7.594735175371170044e-02
-1.198766678571701050e-01
2.961688935756683350e-01
4.599725082516670227e-02
-5.538135766983032227e-02
1.392836719751358032e-01
-6.235612034797668457e-01
6.256809085607528687e-02
4.325039088726043701e-01
-4.372365176677703857e-01
-1.812274754047393799e-01
1.058951243758201599e-01
-7.686335127800703049e-03
-1.807008385658264160e-01
-2.017683237791061401e-01
3.079493045806884766e-01
2.588475048542022705e-01
7.093854993581771851e-02
5.438575148582458496e-01
3.499273583292961121e-02
1.269554346799850464e-01
7.191988229751586914e-01
4.681747555732727051e-01
5.908182263374328613e-01
-5.125536918640136719e-01
4.002013802528381348e-01
5.796695351600646973e-01
3.339699804782867432e-01
-2.807147502899169922e-01
-7.309932112693786621e-01
8.672429919242858887e-01
2.543122768402099609e-01
5.519222021102905273e-01
-2.998480796813964844e-01
1.603777110576629639e-01
6.268602013587951660e-01
-5.112470388412475586e-01
3.776468932628631592e-01
-4.883097410202026367e-01
-4.456362426280975342e-01
5.279656052589416504e-01
-4.555409550666809082e-01
-1.655698269605636597e-01
6.288728117942810059e-01
9.026236832141876221e-02
-4.062411189079284668e-01
3.333530426025390625e-01
1.642753481864929199e-01
4.419309198856353760e-01
3.233171701431274414e-01
6.971183419227600098e-01
4.001111164689064026e-02
3.981539309024810791e-01
6.786841750144958496e-01
-2.207257300615310669e-01
5.498174428939819336e-01
-1.055807843804359436e-01
-5.988775938749313354e-02
3.887098729610443115e-01
4.063242673873901367e-01
-4.141699969768524170e-01
-5.749964714050292969e-01
7.310807704925537109e-01
3.525189459323883057e-01
9.013670682907104492e-01
-1.445713639259338379e-01
-3.416936472058296204e-02
6.850177645683288574e-01
-7.085189819335937500e-01
3.031865060329437256e-01
3.229519352316856384e-02
-6.841273307800292969e-01
3.716949224472045898e-01
-7.581074833869934082e-01
-4.509306252002716064e-01
2.454348802566528320e-01
1.258573774248361588e-02
-4.267247617244720459e-01
4.663564264774322510e-01
2.389954924583435059e-01
5.706556439399719238e-01
1.042108908295631409e-01
1.153103232383728027e+00
2.443114519119262695e-01
3.789459466934204102e-01
3.617864847183227539e-01
-5.866239070892333984e-01
2.536197304725646973e-01
2.379609644412994385e-01
3.735164403915405273e-01
1.345176994800567627e-01
1.536721587181091309e-01
1.618476659059524536e-01
-6.160495877265930176e-01
5.389383435249328613e-01
1.254975646734237671e-01
5.489652156829833984e-01
2.472949922084808350e-01
9.679041802883148193e-02
3.064893484115600586e-01
-1.174634099006652832e+00
6.045674681663513184e-01
-5.817983672022819519e-02
9.508137009106576443e-04
4.435635730624198914e-02
6.445950269699096680e-01
3.654292821884155273e-01
4.918836653232574463e-01
6.392350792884826660e-02
-8.455005288124084473e-01
2.556846439838409424e-01
-1.252016872167587280e-01
2.376365661621093750e-02
6.914244592189788818e-02
1.286770343780517578e+00
4.069949313998222351e-02
-6.444317847490310669e-02
2.231479585170745850e-01
-3.439576029777526855e-01
2.256463617086410522e-01
4.099725186824798584e-01
1.354382336139678955e-01
1.254396140575408936e-01
-8.699682354927062988e-01
2.716836333274841309e-01
-3.194321095943450928e-01
7.236524224281311035e-01
1.526147723197937012e-01
2.590967714786529541e-01
-1.621953248977661133e-01
1.367028653621673584e-01
6.637645959854125977e-01
-1.145188093185424805e+00
5.321263074874877930e-01
-2.578053176403045654e-01
-3.018897473812103271e-01
4.612608253955841064e-01
4.702592790126800537e-01
5.117309838533401489e-02
5.551412105560302734e-01
2.777232527732849121e-01
-8.853584527969360352e-01
5.122270584106445312e-01
-3.736219406127929688e-01
-1.441746056079864502e-01
1.926850378513336182e-01
1.172359704971313477e+00
-7.239088416099548340e-02
2.043307125568389893e-01
3.807868063449859619e-01
1.234459802508354187e-01
2.447453141212463379e-01
-3.893161937594413757e-02
2.086488157510757446e-01
2.283300757408142090e-01
-5.233290195465087891e-01
1.321205198764801025e-01
-6.070578098297119141e-01
7.667571902275085449e-01
1.558477729558944702e-01
9.396586567163467407e-02
-3.792035877704620361e-01
-1.510007977485656738e-01
5.529713034629821777e-01
-9.214199781417846680e-01
1.468775123357772827e-01
-8.078285306692123413e-02
-4.076250195503234863e-01
5.702559947967529297e-01
5.552713274955749512e-01
2.873356342315673828e-01
2.185643017292022705e-01
4.493009448051452637e-01
-4.011566936969757080e-01
5.682451128959655762e-01
-5.685949921607971191e-01
-4.966960251331329346e-01
3.116587102413177490e-01
7.001789808273315430e-01
-1.557156741619110107e-01
4.021067023277282715e-01
4.150106608867645264e-01
9.092147648334503174e-02
-2.013034187257289886e-02
-6.929597817361354828e-03
5.018286108970642090e-01
4.101752042770385742e-01
-4.791046977043151855e-01
-3.594110906124114990e-02
-3.999073207378387451e-01
8.120410442352294922e-01
6.702827215194702148e-01
4.208223223686218262e-01
-4.126985371112823486e-01
-5.810701251029968262e-01
2.857700288295745850e-01
-3.770200014114379883e-01
3.539923205971717834e-02
-1.612784862518310547e-01
-1.854450702667236328e-01
2.990577220916748047e-01
6.162635087966918945e-01
3.185085952281951904e-01
-3.870578706264495850e-01
1.599935144186019897e-01
1.194806993007659912e-01
1.605387479066848755e-01
-3.457832038402557373e-01
-3.250038921833038330e-01
3.597432374954223633e-01
4.501912891864776611e-01
-1.550788432359695435e-01
1.971580684185028076e-01
3.763906061649322510e-01
-7.017931342124938965e-02
1.807565242052078247e-02
-1.053265705704689026e-01
2.162827849388122559e-01
2.947750687599182129e-01
-3.826385438442230225e-01
-2.574692070484161377e-01
-2.896977402269840240e-02
8.264499902725219727e-01
7.904452681541442871e-01
4.358555972576141357e-01
-2.036028355360031128e-01
-5.577015280723571777e-01
7.152447104454040527e-01
-3.524205386638641357e-01
8.338902592658996582e-01
3.442044928669929504e-02
-1.889988481998443604e-01
1.116036437451839447e-03
4.987183213233947754e-01
2.191056683659553528e-02
-5.496474355459213257e-02
4.526345133781433105e-01
-9.889930486679077148e-01
7.514375448226928711e-01
2.707701325416564941e-01
1.534941196441650391e-01
-6.155978441238403320e-01
2.598314285278320312e-01
-1.578302234411239624e-01
1.837224662303924561e-01
2.732276320457458496e-01
2.899936400353908539e-03
-4.422030448913574219e-01
2.824980914592742920e-01
3.458789288997650146e-01
8.323583006858825684e-02
-8.036798983812332153e-02
3.289146348834037781e-02
-2.165161818265914917e-01
1.944314241409301758e-01
1.830481141805648804e-01
-1.404493451118469238e-01
-4.420527517795562744e-01
-5.332512855529785156e-01
1.178512349724769592e-01
1.389186084270477295e-01
5.098761916160583496e-01
-9.706372767686843872e-02
2.123536616563796997e-01
2.983199246227741241e-02
2.361792623996734619e-01
-1.974047571420669556e-01
8.605135977268218994e-02
-4.851444810628890991e-02
-3.962838649749755859e-01
5.197534561157226562e-01
2.330346256494522095e-01
-1.075835078954696655e-01
-3.235388696193695068e-01
1.076376531273126602e-02
1.851405948400497437e-01
-2.760742008686065674e-01
-8.116833865642547607e-02
2.385637536644935608e-02
-1.384564042091369629e-01
2.143258005380630493e-01
4.623779281973838806e-02
1.836289167404174805e-01
1.709408313035964966e-01
2.615198493003845215e-01
-1.658991277217864990e-01
-2.313054203987121582e-01
6.556142866611480713e-02
-2.237459570169448853e-01
1.902246475219726562e-01
-3.026945888996124268e-01
-1.897825002670288086e-01
2.713758051395416260e-01
1.401056200265884399e-01
8.086757361888885498e-02
1.973317265510559082e-01
-3.904384747147560120e-02
2.164012640714645386e-01
-2.479821741580963135e-01
-1.180308014154434204e-01
-2.059201449155807495e-01
-7.925830781459808350e-02
1.658381372690200806e-01
1.868662387132644653e-01
5.743881314992904663e-02
-2.241886407136917114e-01
8.782317489385604858e-02
3.376932144165039062e-01
-3.520568907260894775e-01
-2.207430154085159302e-01
1.127326563000679016e-01
6.369917839765548706e-02
1.460954695940017700e-01
-3.469342365860939026e-02
6.793202459812164307e-02
1.389432400465011597e-01
2.274036258459091187e-01
-9.150013327598571777e-03
-1.876957267522811890e-01
1.395110599696636200e-02
3.414958715438842773e-03
2.714401781558990479e-01
-1.655827276408672333e-02
-7.891000062227249146e-02
-8.584797382354736328e-03
-2.705308422446250916e-02
5.867842584848403931e-02
-6.320925056934356689e-02
7.530527561902999878e-02
-3.944389894604682922e-02
1.547977328300476074e-02
2.853848040103912354e-03
5.741987377405166626e-02
-7.264697551727294922e-02
6.085210293531417847e-02
8.135420829057693481e-02
-8.565990626811981201e-02
-6.659249961376190186e-02
-5.148630589246749878e-02
-2.852815762162208557e-02
-8.221597969532012939e-02
-3.747373074293136597e-02
-1.878615468740463257e-02
7.270824164152145386e-02
-7.207001745700836182e-02
-3.227126970887184143e-02
3.147415071725845337e-02
1.129388064146041870e-02
3.695966303348541260e-02
3.827083110809326172e-02
-3.786182403564453125e-02
-1.132562756538391113e-02
-1.637233048677444458e-02
-1.795205473899841309e-02
-1.046960800886154175e-02
2.077333629131317139e-02
-3.356929495930671692e-02
8.572416752576828003e-02
1.297635585069656372e-02
7.845472544431686401e-02
-7.204262167215347290e-02
2.696529030799865723e-03
-4.123947396874427795e-02
4.219225794076919556e-02
1.372698694467544556e-02
1.449941098690032959e-02
-1.438064873218536377e-02
-2.755145356059074402e-02
-6.220510974526405334e-02
-2.460938692092895508e-02
5.090117454528808594e-03
-8.555122464895248413e-02
-3.438916802406311035e-02
-3.112491965293884277e-02
3.458015620708465576e-03
7.538045197725296021e-02
2.536224573850631714e-02
3.608738631010055542e-02
-3.593385219573974609e-02
1.812654733657836914e-02
3.498039394617080688e-02
-6.665702164173126221e-02
-1.775687187910079956e-02
-2.406622469425201416e-02
-4.497514665126800537e-02
-1.653693616390228271e-03
-7.555224001407623291e-02
-5.941668152809143066e-02
3.862708806991577148e-03
8.409439772367477417e-02
6.169877201318740845e-02
-1.084909588098526001e-02
-1.706477254629135132e-02
-3.658042103052139282e-02
-7.488790899515151978e-02
5.539052188396453857e-03
-2.132713049650192261e-02
-4.727454856038093567e-02
7.207252830266952515e-02
1.971902698278427124e-02
4.926265031099319458e-02
-6.850107014179229736e-02
7.371006160974502563e-02
-2.938820421695709229e-02
-6.576829403638839722e-02
4.271180182695388794e-02
1.736409962177276611e-02
5.655800551176071167e-02
6.938291341066360474e-02
7.736486941576004028e-02
-2.956602722406387329e-02
-2.098401635885238647e-02
-4.143806919455528259e-02
7.467427104711532593e-02
5.509252101182937622e-02
4.254483431577682495e-02
3.974927216768264771e-02
3.720802068710327148e-02
-1.625411957502365112e-02
1.358798891305923462e-02
3.728491067886352539e-02
7.139051705598831177e-02
8.552417904138565063e-02
8.084565401077270508e-03
-7.537722587585449219e-03
5.187126249074935913e-02
-2.784490957856178284e-02
-7.349508255720138550e-02
-5.286463350057601929e-02
-7.797051221132278442e-02
2.140104770660400391e-03
-1.529984176158905029e-03
1.336985081434249878e-02
-7.038641721010208130e-02
-2.343723922967910767e-02
-6.486612558364868164e-02
-7.482124119997024536e-02
-2.807546034455299377e-02
4.660970717668533325e-02
5.994751304388046265e-02
-4.312979057431221008e-02
2.140984684228897095e-02
-8.192591369152069092e-03
-1.335529237985610962e-02
-5.145919695496559143e-02
-5.335866659879684448e-02
-7.216998934745788574e-02
-2.652347832918167114e-02
-2.021036297082901001e-02
5.046687275171279907e-02
-1.015885919332504272e-02
-4.112169146537780762e-01
3.695683479309082031e-01
-2.030765078961849213e-02
-4.150776267051696777e-01
-7.923796772956848145e-02
1.956810802221298218e-02
-6.251358892768621445e-03
-3.317492604255676270e-01
-2.442104518413543701e-01
-3.147998750209808350e-01
6.908471882343292236e-02
-3.651396036148071289e-01
2.296747565269470215e-01
3.619364798069000244e-01
-6.738121807575225830e-02
5.184184387326240540e-02
1.734834462404251099e-01
-4.595311582088470459e-01
2.790015935897827148e-01
4.020000994205474854e-01
-8.599335700273513794e-02
1.285445410758256912e-02
-7.822836935520172119e-02
-1.772780567407608032e-01
4.364990890026092529e-01
-2.581660449504852295e-02
3.505143523216247559e-02
-2.827435135841369629e-01
-1.496434584259986877e-02
7.146147638559341431e-02
3.913310170173645020e-01
4.644840657711029053e-01
-5.005657672882080078e-02
4.095920920372009277e-01
-1.308874636888504028e-01
3.667489066720008850e-02
8.115537464618682861e-02
1.074047982692718506e-01
-5.416503991000354290e-04
-1.198978871107101440e-01
-1.588406264781951904e-01
-1.208736971020698547e-01
-2.144747376441955566e-01
-1.608380973339080811e-01
2.697006464004516602e-01
1.824695318937301636e-01
-2.490461170673370361e-01
8.139634877443313599e-02
-1.878595203161239624e-01
-2.025568485260009766e-01
1.684367507696151733e-01
3.317539691925048828e-01
2.928514964878559113e-02
3.887607157230377197e-02
1.371115297079086304e-01
-1.612723916769027710e-01
2.448017336428165436e-02
6.753932684659957886e-02
2.309715449810028076e-01
2.547442018985748291e-01
3.598361089825630188e-02
-6.645307410508394241e-03
-3.175894320011138916e-01
4.079124033451080322e-01
4.040968418121337891e-01
3.057085871696472168e-01
2.596081793308258057e-01
2.416229993104934692e-01
-4.196902737021446228e-03
1.205887347459793091e-01
-1.225758437067270279e-02
-3.784767985343933105e-01
4.896880090236663818e-01
5.708963274955749512e-01
-1.132594868540763855e-01
3.683235347270965576e-01
-1.796741783618927002e-01
9.142156690359115601e-02
-1.808993369340896606e-01
-2.058864235877990723e-01
-4.021410048007965088e-01
5.620085000991821289e-01
9.562328457832336426e-02
-5.488122254610061646e-02
-4.221209585666656494e-01
3.131597340106964111e-01
4.142689108848571777e-01
-3.089160099625587463e-02
-7.187181711196899414e-02
5.351230502128601074e-02
-4.236954450607299805e-01
6.413541436195373535e-01
-6.776426732540130615e-02
-1.074401512742042542e-01
-2.394436895847320557e-01
-3.216576576232910156e-01
-4.260310828685760498e-01
-9.743717312812805176e-02
3.907292783260345459e-01
4.246316850185394287e-02
-3.985499963164329529e-02
1.736063063144683838e-01
-2.824374437332153320e-01
1.924677006900310516e-02
5.443432927131652832e-01
-2.539672255516052246e-01
-4.560512900352478027e-01
3.146247565746307373e-01
3.480625450611114502e-01
1.683176159858703613e-01
-5.620483756065368652e-01
2.988969385623931885e-01
-1.062842458486557007e-01
-3.740279078483581543e-01
-4.929326176643371582e-01
2.093856036663055420e-01
4.076534211635589600e-01
6.456752866506576538e-02
-1.389563828706741333e-01
2.133148163557052612e-01
4.411629587411880493e-02
3.828622028231620789e-02
3.881863057613372803e-01
-4.089452028274536133e-01
6.902354210615158081e-02
-2.314282059669494629e-01
-5.614241957664489746e-01
3.982435166835784912e-01
1.705159544944763184e-01
-1.014614254236221313e-01
5.187126398086547852e-01
-1.249767318367958069e-01
-3.650009930133819580e-01
5.704842135310173035e-02
-3.541566133499145508e-01
8.565405756235122681e-02
2.406787723302841187e-01
-8.264265209436416626e-02
-6.777135133743286133e-01
3.399561643600463867e-01
3.386919498443603516e-01
-3.438698500394821167e-02
-8.842033147811889648e-01
1.615447849035263062e-01
-1.713390648365020752e-01
-2.755619585514068604e-01
-6.664356589317321777e-01
2.700850069522857666e-01
5.312233567237854004e-01
7.309529930353164673e-02
5.056694895029067993e-02
-5.906255915760993958e-02
2.053086757659912109e-01
2.225641161203384399e-02
1.854193657636642456e-01
1.000272855162620544e-01
2.689372599124908447e-01
-3.620240092277526855e-01
-2.559818327426910400e-01
3.984483480453491211e-01
2.440849989652633667e-01
-2.036686688661575317e-01
6.875889897346496582e-01
-4.572731256484985352e-01
-3.114009201526641846e-01
-1.867311298847198486e-01
6.248102784156799316e-01
6.442601680755615234e-01
2.853612303733825684e-01
2.104936912655830383e-02
-1.020658612251281738e+00
3.336443006992340088e-01
4.684291481971740723e-01
4.911237955093383789e-02
-1.376734614372253418e+00
3.531808257102966309e-01
-8.274193108081817627e-02
-3.625658154487609863e-01
-4.801831841468811035e-01
2.990684807300567627e-01
1.966185569763183594e-01
-4.425810277462005615e-02
4.499238729476928711e-01
5.176409333944320679e-02
2.911483943462371826e-01
-5.110928416252136230e-01
-4.435159265995025635e-01
1.568118808791041374e-03
-7.987099885940551758e-02
-9.017357230186462402e-01
1.308103352785110474e-01
6.924365758895874023e-01
4.924249947071075439e-01
-5.348201096057891846e-02
4.612223803997039795e-01
-5.387384891510009766e-01
-1.491430699825286865e-01
7.337114810943603516e-01
3.504009246826171875e-01
4.876325428485870361e-01
4.960495829582214355e-01
-1.591224968433380127e-02
-8.472261428833007812e-01
3.249995708465576172e-01
6.329429149627685547e-01
3.305577933788299561e-01
-1.534847021102905273e+00
6.094669699668884277e-01
-4.784125834703445435e-02
-2.574964165687561035e-01
-3.436879217624664307e-01
-3.076866269111633301e-01
-6.691005229949951172e-01
-2.891651391983032227e-01
6.883073449134826660e-01
2.427309304475784302e-01
2.794767320156097412e-01
8.542052656412124634e-02
4.010502994060516357e-02
4.952498078346252441e-01
1.108187809586524963e-01
-9.371221661567687988e-01
1.159817352890968323e-01
7.690544128417968750e-01
2.091507464647293091e-01
6.494912505149841309e-02
3.744175434112548828e-01
-6.418889164924621582e-01
-1.808617636561393738e-02
5.336363911628723145e-01
-4.905273318290710449e-01
4.058265313506126404e-02
8.700882196426391602e-01
1.144130229949951172e-01
-8.801009058952331543e-01
4.037824869155883789e-01
6.123232245445251465e-01
-2.803854048252105713e-01
-1.287406206130981445e+00
2.015312612056732178e-01
-6.363137364387512207e-01
8.364970982074737549e-02
2.854342162609100342e-01
-5.189983248710632324e-01
-3.723136782646179199e-01
9.466759860515594482e-03
5.761876106262207031e-01
-4.001211002469062805e-02
2.505795359611511230e-01
1.025267466902732849e-01
-5.872998833656311035e-01
5.479775071144104004e-01
4.219675362110137939e-01
-6.314622163772583008e-01
-2.190214246511459351e-01
4.075102210044860840e-01
8.065012097358703613e-02
2.039565443992614746e-01
4.763834774494171143e-01
-6.242725253105163574e-01
1.097448617219924927e-01
-3.338915407657623291e-01
-5.576207041740417480e-01
2.529703676700592041e-01
6.706228256225585938e-01
-1.199124529957771301e-01
-1.359156250953674316e+00
-2.424438297748565674e-01
7.454823851585388184e-01
-1.723210066556930542e-01
-9.329987764358520508e-01
5.196508169174194336e-01
-4.295949935913085938e-01
-1.144536659121513367e-01
3.765326738357543945e-01
-2.202255725860595703e-01
-5.177809596061706543e-01
4.714494943618774414e-02
8.060545325279235840e-01
-6.097504496574401855e-01
-7.334673404693603516e-01
-2.322782427072525024e-01
-5.232599973678588867e-01
2.112042456865310669e-01
3.839019536972045898e-01
-6.528730988502502441e-01
-1.073815301060676575e-01
2.752606868743896484e-01
6.859785318374633789e-02
4.044265449047088623e-01
5.534763932228088379e-01
-1.658313572406768799e-01
-7.104506343603134155e-02
-5.957460999488830566e-01
-5.306586623191833496e-01
8.383535742759704590e-01
6.364646553993225098e-01
2.474125325679779053e-01
-1.046017169952392578e+00
-6.576503515243530273e-01
6.609035730361938477e-01
-1.304755061864852905e-01
-3.931268155574798584e-01
9.216540455818176270e-01
-8.388367295265197754e-02
-6.977798044681549072e-02
2.285408042371273041e-02
2.101251333951950073e-01
-3.131751716136932373e-01
2.181552723050117493e-02
1.618696302175521851e-01
-1.109264492988586426e+00
-4.727187156677246094e-01
-1.624982208013534546e-01
4.016888439655303955e-01
2.376774251461029053e-01
2.883169054985046387e-01
-8.462333679199218750e-01
-4.756595473736524582e-03
3.727734386920928955e-01
2.791429460048675537e-01
3.432863354682922363e-01
2.499410957098007202e-01
6.228870525956153870e-02
1.175828184932470322e-02
-9.449370950460433960e-02
-1.073872745037078857e-01
3.249175846576690674e-01
4.153907001018524170e-01
-3.460838198661804199e-01
-1.782593250274658203e+00
-3.005588352680206299e-01
5.510527491569519043e-01
5.785795673727989197e-02
-6.567617058753967285e-01
8.298021554946899414e-01
-2.764199078083038330e-01
1.696393266320228577e-02
6.971140503883361816e-01
2.774276435375213623e-01
1.842540353536605835e-01
-1.270760595798492432e-01
6.183082610368728638e-02
-1.222325086593627930e+00
-1.247280910611152649e-01
4.777896106243133545e-01
4.486795663833618164e-01
1.345950663089752197e-01
4.260762631893157959e-01
-8.080003857612609863e-01
2.431496679782867432e-01
5.916686654090881348e-01
4.035225808620452881e-01
2.612753212451934814e-01
2.038808912038803101e-01
-1.187588125467300415e-01
1.312465071678161621e-01
-4.740981757640838623e-01
-1.478274166584014893e-01
-2.502538263797760010e-01
3.558903932571411133e-01
-3.679840266704559326e-01
-1.805867195129394531e+00
-1.470625996589660645e+00
4.008413553237915039e-01
4.350780695676803589e-02
-1.242141604423522949e+00
5.358060598373413086e-01
-5.514718294143676758e-01
1.936851143836975098e-01
8.117613196372985840e-01
1.995471566915512085e-01
6.978920102119445801e-02
-3.617068231105804443e-01
1.480694264173507690e-01
-7.697289586067199707e-01
-1.762491017580032349e-01
4.394840300083160400e-01
1.445035487413406372e-01
6.775949597358703613e-01
4.623187184333801270e-01
-7.978945374488830566e-01
2.632484436035156250e-01
4.673552513122558594e-01
2.809377312660217285e-01
1.217736974358558655e-01
2.942387461662292480e-01
2.785284817218780518e-01
4.119064658880233765e-02
-3.023620843887329102e-01
-2.158980220556259155e-01
9.424682706594467163e-02
2.551903724670410156e-01
-2.576290071010589600e-01
-1.396432161331176758e+00
-7.402693629264831543e-01
4.006668031215667725e-01
1.193911433219909668e-01
-6.975314617156982422e-01
4.371878206729888916e-01
-4.004276990890502930e-01
2.714272215962409973e-02
2.803221940994262695e-01
-1.127876341342926025e-01
5.827191844582557678e-02
-7.249041199684143066e-01
-1.315430253744125366e-01
-6.602345705032348633e-01
-7.070319056510925293e-01
2.150508463382720947e-01
1.896666586399078369e-01
4.633542895317077637e-01
8.187284320592880249e-02
-5.464863181114196777e-01
-4.802313446998596191e-02
2.568658590316772461e-01
4.134348630905151367e-01
-1.122069135308265686e-01
4.304792284965515137e-01
5.269483476877212524e-02
2.079980969429016113e-01
-9.215126186609268188e-02
8.390586078166961670e-02
-2.417644262313842773e-01
-7.806439697742462158e-02
-4.238809943199157715e-01
-6.657019853591918945e-01
-6.516118645668029785e-01
1.276874095201492310e-01
1.498821675777435303e-01
-1.241627410054206848e-01
4.169606864452362061e-01
-2.763727903366088867e-01
1.606345176696777344e-02
6.745204329490661621e-01
3.156267851591110229e-02
-2.551438286900520325e-02
-1.850987970829010010e-01
6.658524274826049805e-02
-4.075657725334167480e-01
-3.652412891387939453e-01
1.685229092836380005e-01
-9.642627835273742676e-02
4.882626831531524658e-01
1.393907517194747925e-01
-5.217028409242630005e-02
-3.726818561553955078e-01
4.019127190113067627e-01
1.420541405677795410e-01
1.063578501343727112e-01
4.341101944446563721e-01
1.204268634319305420e-01
1.662708818912506104e-01
-2.440673112869262695e-01
-2.732949256896972656e-01
6.369563285261392593e-03
1.024099439382553101e-02
-7.292277179658412933e-03
-6.343513727188110352e-01
-5.774955749511718750e-01
-6.822029501199722290e-02
-4.090670496225357056e-02
2.248688936233520508e-01
6.754294037818908691e-01
-1.298583298921585083e-01
-2.664692401885986328e-01
5.813140869140625000e-01
3.085717558860778809e-01
1.129452511668205261e-01
-2.918759584426879883e-01
-3.649683436378836632e-03
2.054880559444427490e-01
-8.172841370105743408e-02
-9.155068546533584595e-02
2.588096261024475098e-01
5.396729111671447754e-01
4.178482294082641602e-01
-1.948032081127166748e-01
-4.293131828308105469e-01
2.793702185153961182e-01
4.037226140499114990e-01
-1.070122122764587402e-01
4.190374016761779785e-01
1.907649934291839600e-01
-9.981825202703475952e-02
-6.918209195137023926e-01
-2.295038402080535889e-01
1.243341043591499329e-01
2.124504745006561279e-01
7.519914209842681885e-02
-1.462640613317489624e-01
-1.785313785076141357e-01
-1.377869695425033569e-01
-7.003176212310791016e-02
3.250233232975006104e-01
7.164128422737121582e-01
2.406986057758331299e-01
-8.564046025276184082e-02
4.348251223564147949e-01
-9.846999496221542358e-02
3.815721869468688965e-01
-1.630535572767257690e-01
-1.547939032316207886e-01
2.867224812507629395e-01
-1.613247245550155640e-01
5.479490756988525391e-02
4.856200218200683594e-01
5.480878353118896484e-01
-2.208686769008636475e-01
-1.210171878337860107e-01
-3.498958647251129150e-01
6.636850535869598389e-02
4.243774414062500000e-01
-8.001369833946228027e-01
6.505493521690368652e-01
-5.213473364710807800e-02
-2.277958989143371582e-01
-3.791572749614715576e-01
-1.772185415029525757e-02
-1.654537767171859741e-01
-5.104427933692932129e-01
8.691339939832687378e-02
2.042477279901504517e-01
-3.462872207164764404e-01
2.681974768638610840e-01
7.011336088180541992e-02
2.139035761356353760e-01
8.884605765342712402e-01
8.946973085403442383e-02
-6.695454567670822144e-02
3.087358176708221436e-01
-1.426200121641159058e-01
4.405352175235748291e-01
2.524845600128173828e-01
-1.821647286415100098e-01
7.930658012628555298e-02
3.683146461844444275e-02
-1.734468191862106323e-01
5.967084690928459167e-02
6.047096252441406250e-01
-1.115595847368240356e-01
-1.737008541822433472e-01
9.274857491254806519e-02
-1.672830283641815186e-01
3.112947642803192139e-01
-6.171280145645141602e-01
5.768851637840270996e-01
-3.212767839431762695e-01
-9.385367482900619507e-02
3.127335608005523682e-01
3.092173337936401367e-01
2.311876714229583740e-01
-1.463915556669235229e-01
1.859311163425445557e-01
-2.306366413831710815e-01
-2.776665389537811279e-01
1.081780344247817993e-01
-2.300918698310852051e-01
2.232931554317474365e-01
6.894279122352600098e-01
1.228191852569580078e-01
-8.448470383882522583e-02
3.933763802051544189e-01
-5.813969969749450684e-01
4.523981809616088867e-01
4.238563477993011475e-01
-3.536157906055450439e-01
1.013527661561965942e-01
3.412353340536355972e-03
4.759247899055480957e-01
4.869956523180007935e-02
4.074409008026123047e-01
2.695742845535278320e-01
2.700580060482025146e-01
1.311000138521194458e-01
-9.332424402236938477e-02
7.478245496749877930e-01
-7.697203755378723145e-01
6.907102465629577637e-02
-4.119589626789093018e-01
-3.656643629074096680e-01
1.334923803806304932e-01
-5.261605232954025269e-02
4.014535844326019287e-01
3.862488865852355957e-01
-7.022570073604583740e-02
-7.221903204917907715e-01
4.392012208700180054e-02
-5.074144341051578522e-03
6.072977185249328613e-01
-2.677552402019500732e-01
8.850783705711364746e-01
3.659833967685699463e-01
-1.269621104001998901e-01
6.138486266136169434e-01
-4.229906797409057617e-01
3.100821077823638916e-01
-2.237241417169570923e-01
4.408300295472145081e-02
4.059847593307495117e-01
4.190172553062438965e-01
6.906667351722717285e-01
2.546409666538238525e-01
9.721489995718002319e-02
2.529928982257843018e-01
-7.293065637350082397e-02
-1.238440051674842834e-01
-1.068859919905662537e-01
5.613042712211608887e-01
-1.053245067596435547e+00
7.601788640022277832e-01
-4.114849865436553955e-01
-4.415719211101531982e-02
-4.844306781888008118e-02
-3.454917073249816895e-01
4.638389050960540771e-01
2.312911450862884521e-01
3.567585349082946777e-01
-3.200196027755737305e-01
2.803695499897003174e-01
-5.341005325317382812e-01
4.087390005588531494e-01
2.530029118061065674e-01
4.678823649883270264e-01
8.297073096036911011e-02
-8.283339440822601318e-02
5.105100199580192566e-02
-3.643793165683746338e-01
-2.176587134599685669e-01
-4.517891108989715576e-01
3.128913640975952148e-01
2.917797267436981201e-01
1.777050048112869263e-01
-1.856074482202529907e-01
-1.543736178427934647e-02
2.775220870971679688e-01
-2.489792257547378540e-01
2.088423669338226318e-01
1.234056949615478516e-01
-4.864017665386199951e-01
6.389994174242019653e-02
-7.905814647674560547e-01
9.249095916748046875e-01
-9.246342182159423828e-01
4.335724115371704102e-01
-5.242473483085632324e-01
-2.438394725322723389e-01
6.514488160610198975e-02
-3.642871379852294922e-01
3.276145160198211670e-01
6.219937205314636230e-01
2.119533121585845947e-01
-6.160745620727539062e-01
-5.042104050517082214e-02
6.547236442565917969e-01
4.988774061203002930e-01
-2.271183133125305176e-01
-4.040116444230079651e-02
-2.774842977523803711e-01
-2.381887882947921753e-01
-6.534948348999023438e-01
-3.448793888092041016e-01
-2.254374511539936066e-02
-2.400914281606674194e-01
1.460722684860229492e-01
-2.387308031320571899e-01
-3.800534009933471680e-01
6.222558021545410156e-01
-7.032028436660766602e-01
3.960734009742736816e-01
8.785272389650344849e-02
-1.040604829788208008e+00
-1.810685843229293823e-01
-8.435780405998229980e-01
5.642203092575073242e-01
-1.148415654897689819e-01
8.810696750879287720e-02
-7.020977735519409180e-01
-4.354644417762756348e-01
2.284344471991062164e-02
3.772019967436790466e-02
8.076623678207397461e-01
1.552632600069046021e-01
2.973480820655822754e-01
-1.251652538776397705e-01
2.414391636848449707e-01
2.136445492506027222e-01
8.085484504699707031e-01
-8.837505429983139038e-02
5.008881688117980957e-01
-1.434754580259323120e-01
-2.882944047451019287e-02
-8.783678412437438965e-01
5.789028406143188477e-01
4.495936334133148193e-01
-1.788872182369232178e-01
5.340576171875000000e-02
-2.229214012622833252e-01
-4.572090506553649902e-01
1.287454485893249512e+00
-6.463893651962280273e-01
-3.427505493164062500e-01
-6.350331902503967285e-01
-1.026609539985656738e+00
1.849110424518585205e-02
-1.795090436935424805e-01
2.703569233417510986e-01
1.447882503271102905e-01
-1.903799623250961304e-01
-3.236562013626098633e-01
-8.703036606311798096e-02
1.578258424997329712e-01
-4.956737160682678223e-02
5.445710197091102600e-02
-1.568757444620132446e-01
4.016621708869934082e-01
-2.178218215703964233e-02
5.714825391769409180e-01
1.583944410085678101e-01
4.884085953235626221e-01
-4.027769342064857483e-02
-8.071518689393997192e-02
2.417926341295242310e-01
2.482149936258792877e-02
-3.015233874320983887e-01
2.351150065660476685e-01
4.680736660957336426e-01
-2.350188195705413818e-01
3.497562706470489502e-01
2.543357610702514648e-01
1.460465416312217712e-02
2.614588737487792969e-01
5.350908637046813965e-01
-8.150445818901062012e-01
-2.925145924091339111e-01
-1.906552463769912720e-01
-4.403572380542755127e-01
-1.586883366107940674e-01
-2.619400620460510254e-01
-1.201840415596961975e-01
3.672086894512176514e-01
-1.609082818031311035e-01
2.530558407306671143e-01
1.357686221599578857e-01
-3.279694169759750366e-02
-6.077463626861572266e-01
2.895516753196716309e-01
-2.850104570388793945e-01
4.924011528491973877e-01
3.052886724472045898e-01
-3.478807806968688965e-01
5.959997177124023438e-01
6.144665479660034180e-01
-4.008181691169738770e-01
1.861464828252792358e-01
9.264867752790451050e-02
-2.205400466918945312e-01
1.290858536958694458e-02
-1.016978919506072998e-01
-5.196875333786010742e-01
8.102012872695922852e-01
5.089096426963806152e-01
4.410054385662078857e-01
-4.362259805202484131e-01
7.529036700725555420e-02
1.276497244834899902e-01
5.681079030036926270e-01
1.491425484418869019e-01
1.792386472225189209e-01
-4.532161355018615723e-01
9.134579449892044067e-02
8.299526572227478027e-02
3.821073472499847412e-01
5.440765991806983948e-02
2.616137564182281494e-01
3.831461668014526367e-01
-8.147398009896278381e-03
2.871229946613311768e-01
-4.188463091850280762e-01
1.174787878990173340e-01
-5.366040393710136414e-03
4.955648910254240036e-03
5.608691275119781494e-02
4.342441558837890625e-01
1.524059474468231201e-02
6.060176342725753784e-02
2.877447605133056641e-01
-5.186427012085914612e-02
-2.253877669572830200e-01
5.811354890465736389e-02
-7.976740598678588867e-03
-4.433806836605072021e-01
1.232100650668144226e-01
5.299364924430847168e-01
3.393821418285369873e-03
2.033361047506332397e-01
6.649581342935562134e-02
-5.140765383839607239e-02
-1.883339136838912964e-01
-2.628057599067687988e-01
1.788483560085296631e-02
-1.290647685527801514e-02
7.950214296579360962e-02
7.264628261327743530e-02
7.455722242593765259e-02
-7.857166975736618042e-02
7.321924716234207153e-02
7.580861449241638184e-03
-5.242121964693069458e-02
4.558669775724411011e-02
-7.069058716297149658e-02
3.837810456752777100e-02
-8.463986217975616455e-02
-4.741504788398742676e-03
3.612202405929565430e-02
-7.546231150627136230e-02
-5.601659417152404785e-03
-8.010043203830718994e-02
-2.921831235289573669e-02
-1.250315457582473755e-02
-1.122438907623291016e-02
-6.979157030582427979e-02
-7.039529085159301758e-02
-8.430404961109161377e-02
-1.026911288499832153e-02
2.406036108732223511e-02
-2.425177767872810364e-02
-5.668954551219940186e-02
-3.534638881683349609e-02
-2.677637338638305664e-02
-6.484194099903106689e-02
1.700371503829956055e-04
2.078797668218612671e-02
5.651903897523880005e-02
-3.010358661413192749e-02
-1.792347431182861328e-02
3.522223234176635742e-02
-4.175233840942382812e-02
5.968577414751052856e-02
-1.054443418979644775e-02
7.900441437959671021e-02
-3.533213585615158081e-02
8.411446958780288696e-02
8.223944157361984253e-02
3.016941994428634644e-02
3.855445235967636108e-02
4.005422443151473999e-02
7.627815753221511841e-02
4.657991230487823486e-03
4.456434398889541626e-02
6.736230105161666870e-02
-5.102287605404853821e-02
2.580243349075317383e-02
1.051051914691925049e-02
-3.031684085726737976e-02
-3.954170644283294678e-02
8.159051090478897095e-02
-1.964114606380462646e-03
-2.328930422663688660e-02
8.115094155073165894e-02
-7.717191427946090698e-02
-1.848433911800384521e-02
8.323565870523452759e-02
5.703417211771011353e-02
-4.535032063722610474e-02
-2.687140554189682007e-02
6.716334819793701172e-02
-6.089460104703903198e-03
7.805740088224411011e-02
4.114774614572525024e-02
4.826009273529052734e-02
-2.453523501753807068e-02
-5.562799796462059021e-02
4.618509486317634583e-02
-2.049411088228225708e-02
-1.457467675209045410e-03
1.441105734556913376e-02
2.428700402379035950e-02
-7.723961025476455688e-02
2.783471718430519104e-02
-4.585317894816398621e-02
-1.930909603834152222e-02
8.527978323400020599e-03
6.341338157653808594e-02
-8.488925173878669739e-03
-2.119593322277069092e-02
-6.760573387145996094e-02
-6.371706724166870117e-03
-5.516820773482322693e-02
1.534689869731664658e-02
-5.674410238862037659e-02
-4.576873406767845154e-02
-7.814257591962814331e-02
-2.702194824814796448e-02
-6.666273623704910278e-02
-8.536313660442829132e-03
-4.768446981906890869e-01
5.048280358314514160e-01
-1.711431294679641724e-01
-4.778261482715606689e-01
-5.876082181930541992e-02
8.344302326440811157e-02
1.210069432854652405e-01
-4.358639717102050781e-01
-3.102178573608398438e-01
-2.628680467605590820e-01
1.730856746435165405e-01
-4.407328665256500244e-01
3.353270888328552246e-01
3.401409685611724854e-01
-4.174314904958009720e-03
-9.148693084716796875e-02
7.896890491247177124e-02
-4.219029247760772705e-01
4.000592827796936035e-01
5.202078819274902344e-01
1.512279510498046875e-01
-8.040449023246765137e-02
-3.300002217292785645e-02
-3.087176382541656494e-01
5.648043155670166016e-01
-1.251401156187057495e-01
1.730596572160720825e-01
-4.202466011047363281e-01
-7.666709367185831070e-03
6.004819646477699280e-02
4.381767511367797852e-01
6.022866368293762207e-01
-7.256472110748291016e-01
3.233397305011749268e-01
-1.800837516784667969e-01
-5.141181349754333496e-01
-4.075248837471008301e-01
2.744562625885009766e-01
4.914516508579254150e-01
2.165783196687698364e-01
-2.582140564918518066e-01
-1.521680504083633423e-01
7.936287671327590942e-02
-6.804392337799072266e-01
1.362979859113693237e-01
2.741857469081878662e-01
3.410308957099914551e-01
2.217884957790374756e-01
1.931037604808807373e-01
-5.659859180450439453e-01
1.485457569360733032e-01
7.619140148162841797e-01
8.031681925058364868e-02
-1.415281891822814941e-01
2.303649112582206726e-02
-5.525042489171028137e-02
5.889565944671630859e-01
-5.655369162559509277e-01
2.892535924911499023e-01
8.265964686870574951e-02
2.770249843597412109e-01
2.578701376914978027e-01
-5.352155119180679321e-02
3.910985291004180908e-01
3.568936288356781006e-01
1.360280960798263550e-01
2.494475841522216797e-01
3.909948468208312988e-01
-3.732158243656158447e-01
1.838072538375854492e-01
5.945180058479309082e-01
-2.687818370759487152e-02
9.317742586135864258e-01
5.136669874191284180e-01
-2.415615767240524292e-01
2.394132614135742188e-01
-2.217546403408050537e-01
2.164053171873092651e-01
-1.077551022171974182e-01
9.920004010200500488e-02
-2.713273465633392334e-01
3.205173015594482422e-01
1.315419077873229980e-01
1.519220918416976929e-01
-5.603780150413513184e-01
1.043083891272544861e-01
6.629769206047058105e-01
-1.562349200248718262e-01
1.431826651096343994e-01
-5.330015420913696289e-01
9.715842083096504211e-03
3.352319002151489258e-01
1.816675066947937012e-01
1.516908407211303711e-01
-2.706603109836578369e-01
-1.096906885504722595e-02
-7.088743895292282104e-02
-3.940133154392242432e-01
7.167716622352600098e-01
4.746336117386817932e-02
-8.783578872680664062e-02
-1.009168772725388408e-04
3.598554134368896484e-01
2.999327778816223145e-01
8.699554204940795898e-01
3.015675246715545654e-01
4.152565076947212219e-02
5.873520970344543457e-01
2.687292397022247314e-01
2.340995892882347107e-02
-5.441419482231140137e-01
-1.394192427396774292e-01
7.045272737741470337e-02
-1.346412859857082367e-02
-5.007818341255187988e-01
-1.008020862936973572e-01
2.634811103343963623e-01
7.652144879102706909e-02
-4.181582629680633545e-01
3.521583676338195801e-01
-5.276863574981689453e-01
-1.322366595268249512e-01
-3.105301558971405029e-01
-1.814639419317245483e-01
-8.724365383386611938e-02
2.288628816604614258e-01
8.963054418563842773e-02
3.906015455722808838e-01
3.470532596111297607e-01
-1.232542544603347778e-01
6.413437128067016602e-01
-4.198085665702819824e-01
4.874309003353118896e-01
-4.922541975975036621e-01
-8.296554535627365112e-02
2.793289124965667725e-01
2.248797565698623657e-01
5.454850196838378906e-02
-8.673638850450515747e-02
8.551057428121566772e-03
1.029391437768936157e-01
1.556705534458160400e-01
-6.079331636428833008e-01
1.428773999214172363e-01
5.118144750595092773e-01
3.279420360922813416e-02
-6.453878283500671387e-01
-3.689362667500972748e-03
-1.422181874513626099e-01
1.680497080087661743e-01
-2.113861739635467529e-01
-1.291526257991790771e-01
-9.680970907211303711e-01
3.647261857986450195e-01
-2.681526243686676025e-01
7.949166744947433472e-02
-1.904354840517044067e-01
-4.417364299297332764e-01
4.967593848705291748e-01
2.789388783276081085e-02
-1.269048452377319336e-01
-2.109312266111373901e-01
2.811579108238220215e-01
-4.359704852104187012e-01
4.442554414272308350e-01
-6.312944293022155762e-01
3.786825537681579590e-01
2.291707098484039307e-01
4.005475044250488281e-01
4.210573136806488037e-01
-3.117396533489227295e-01
-1.363883614540100098e-01
-1.363035142421722412e-01
3.063808381557464600e-01
-5.509724020957946777e-01
2.755368128418922424e-02
3.653607070446014404e-01
2.544960975646972656e-01
-3.242329657077789307e-01
-1.767055690288543701e-01
-3.431713879108428955e-01
3.462132513523101807e-01
-2.038093470036983490e-02
-5.245084166526794434e-01
-5.194670557975769043e-01
4.040358364582061768e-01
1.301686372607946396e-02
2.026501148939132690e-01
-2.351036481559276581e-02
-5.074345692992210388e-02
2.950336337089538574e-01
-1.865160465240478516e-01
-3.908538222312927246e-01
-2.152930945158004761e-01
7.509427070617675781e-01
-7.901383638381958008e-01
-3.357238695025444031e-02
6.078243255615234375e-01
1.275253146886825562e-01
2.850352227687835693e-01
4.625121057033538818e-01
-2.526342868804931641e-01
-2.091549783945083618e-01
-1.349380910396575928e-01
4.742413461208343506e-01
2.676562666893005371e-01
-4.383799433708190918e-01
4.082446396350860596e-01
9.540948271751403809e-02
-3.607782423496246338e-01
-3.743168339133262634e-02
6.815139204263687134e-02
-6.092951819300651550e-02
1.012259051203727722e-01
-3.057224452495574951e-01
-5.981333851814270020e-01
1.163500845432281494e-01
-1.313399821519851685e-01
6.257136464118957520e-01
-5.957653373479843140e-02
-1.537831425666809082e-01
-3.409869372844696045e-01
3.385261297225952148e-01
2.138243615627288818e-01
-2.388827800750732422e-01
9.816171973943710327e-02
3.155008256435394287e-01
-8.185513019561767578e-01
-1.776471436023712158e-01
5.956241488456726074e-01
-3.713952600955963135e-01
1.512107551097869873e-01
3.121505081653594971e-01
-3.618588149547576904e-01
-6.308839917182922363e-01
2.336826771497726440e-01
2.139817029237747192e-01
5.884711742401123047e-01
-9.185129404067993164e-01
6.923996210098266602e-01
-2.185968309640884399e-01
1.638643741607666016e-01
2.200945466756820679e-01
-7.666854560375213623e-02
-3.737469315528869629e-01
-9.337838739156723022e-02
9.965180605649948120e-02
-9.946509003639221191e-01
-2.615466073621064425e-04
3.105395436286926270e-01
3.953798115253448486e-01
8.702985942363739014e-02
2.577163875102996826e-01
-5.816878676414489746e-01
2.364096939563751221e-01
-2.075598984956741333e-01
-1.153741627931594849e-01
1.808988451957702637e-01
5.157589316368103027e-01
-4.850077927112579346e-01
-3.753405809402465820e-02
-3.907888233661651611e-01
-1.668554544448852539e-01
9.443232417106628418e-02
2.468972653150558472e-01
-1.078795790672302246e-01
-6.774113178253173828e-01
-1.927614659070968628e-01
2.525286972522735596e-01
1.380628794431686401e-01
-7.035586833953857422e-01
6.450038552284240723e-01
-2.530329525470733643e-01
5.058421492576599121e-01
-6.460227072238922119e-02
